FANN_FLO_2.1
num_layers=3
learning_rate=0.700000
connection_rate=1.000000
network_type=0
learning_momentum=0.000000
training_algorithm=2
train_error_function=1
train_stop_function=0
cascade_output_change_fraction=0.010000
quickprop_decay=-0.000100
quickprop_mu=1.750000
rprop_increase_factor=1.200000
rprop_decrease_factor=0.500000
rprop_delta_min=0.000000
rprop_delta_max=50.000000
rprop_delta_zero=0.100000
cascade_output_stagnation_epochs=12
cascade_candidate_change_fraction=0.010000
cascade_candidate_stagnation_epochs=12
cascade_max_out_epochs=150
cascade_max_cand_epochs=150
cascade_num_candidate_groups=2
bit_fail_limit=3.49999999999999977796e-01
cascade_candidate_limit=1.00000000000000000000e+03
cascade_weight_multiplier=4.00000000000000022204e-01
cascade_activation_functions_count=10
cascade_activation_functions=3 5 7 8 10 11 14 15 16 17 
cascade_activation_steepnesses_count=4
cascade_activation_steepnesses=2.50000000000000000000e-01 5.00000000000000000000e-01 7.50000000000000000000e-01 1.00000000000000000000e+00 
layer_sizes=11 8 2 
scale_included=0
neurons (num_inputs, activation_function, activation_steepness)=(0, 0, 0.00000000000000000000e+00) (0, 0, 0.00000000000000000000e+00) (0, 0, 0.00000000000000000000e+00) (0, 0, 0.00000000000000000000e+00) (0, 0, 0.00000000000000000000e+00) (0, 0, 0.00000000000000000000e+00) (0, 0, 0.00000000000000000000e+00) (0, 0, 0.00000000000000000000e+00) (0, 0, 0.00000000000000000000e+00) (0, 0, 0.00000000000000000000e+00) (0, 0, 0.00000000000000000000e+00) (11, 4, 5.00000000000000000000e-01) (11, 4, 5.00000000000000000000e-01) (11, 4, 5.00000000000000000000e-01) (11, 4, 5.00000000000000000000e-01) (11, 4, 5.00000000000000000000e-01) (11, 4, 5.00000000000000000000e-01) (11, 4, 5.00000000000000000000e-01) (0, 0, 0.00000000000000000000e+00) (8, 4, 5.00000000000000000000e-01) (0, 0, 0.00000000000000000000e+00) 
connections (connected_to_neuron, weight)=(0, -2.75761267999711678911e+00) (1, 2.17340335450407883683e-03) (2, -7.86637178711186574320e-02) (3, 5.72639486795354507587e-02) (4, 3.01319233341433956319e-01) (5, 4.20506692670805093393e-01) (6, 4.06732394282843245925e-01) (7, 3.70389099759866113892e-01) (8, 5.27566323940674264392e-01) (9, 5.28920427010060922868e-01) (10, 1.17425739202958401286e+00) (0, -2.32704253557758672377e-01) (1, -3.19879134000782328062e-01) (2, -6.07858023433632155275e-01) (3, -2.39844002465019801029e-01) (4, -4.39860403208097272554e-01) (5, -3.61974017287125360287e-01) (6, -3.36438112322483551253e-01) (7, -3.03859250961746318875e-01) (8, -2.37888710816524795444e-01) (9, -2.85810690960447089104e-01) (10, 4.82954905191409800125e+00) (0, -1.01527687938682817381e-01) (1, 9.32358006489304447229e-02) (2, 4.26881383360175822861e-02) (3, 1.12529348605353518575e-01) (4, 3.91631041040015837051e-01) (5, 3.77279750126329305182e-01) (6, 4.92637698374821852987e-01) (7, 5.65321029795142093732e-01) (8, 6.57917602054039818427e-01) (9, 6.56625403639841787040e-01) (10, 2.23119971325041843713e+00) (0, -4.18238765219785924021e-01) (1, -9.08972171820790486585e-02) (2, -7.39044072456162687290e-02) (3, 1.08821282436617622347e-02) (4, 4.52384309749928936739e-01) (5, 4.11242643364934712391e-01) (6, 4.13974744677726880226e-01) (7, 4.89726644804513111531e-01) (8, 5.63003646355651254929e-01) (9, 4.47149422675881036415e-01) (10, 1.27109681258832640793e+00) (0, -5.23375523547404131186e-01) (1, 1.64843388473827380525e-02) (2, 8.57668944223773932478e-02) (3, 1.32269401897540522794e-02) (4, 3.62034335055863853992e-01) (5, 4.32076810656258469834e-01) (6, 4.15752796483478570533e-01) (7, 3.84433305489299659286e-01) (8, 4.56308114727983993308e-01) (9, 5.00949312148719183568e-01) (10, 1.15353018843414312222e+00) (0, -3.70686054576421231133e-01) (1, -6.82135419393304770486e-02) (2, 8.95147010146613020254e-03) (3, 1.29701283510912729335e-01) (4, 3.36491250629558258378e-01) (5, 3.98602908316098902830e-01) (6, 4.28974331151308729826e-01) (7, 5.00382929152229927183e-01) (8, 4.84284618891865970003e-01) (9, 4.50024119860834181939e-01) (10, 1.11333572386368451212e+00) (0, -5.59451260096415436962e-01) (1, -5.28648626664181969792e-02) (2, -1.58551063357472831611e-03) (3, -1.28368808854662341812e-01) (4, 2.46772567137021059391e-01) (5, 3.87953659230776126687e-01) (6, 3.30575451196998160164e-01) (7, 3.75286358688913523896e-01) (8, 4.52109767432273712551e-01) (9, 4.88694832873614370961e-01) (10, 2.01210917181485982042e+00) (11, -2.32072553699838479702e-01) (12, -1.04915712396650895322e+00) (13, -2.37722940253560527379e-01) (14, -3.10836022037518366901e-01) (15, -2.60073373164165899674e-01) (16, -2.42103260092095040612e-01) (17, -2.30357532459065317276e-01) (18, -1.41541149351292111502e-01) 
