FANN_FLO_2.1
num_layers=5
learning_rate=0.700000
connection_rate=1.000000
network_type=0
learning_momentum=0.000000
training_algorithm=2
train_error_function=1
train_stop_function=0
cascade_output_change_fraction=0.010000
quickprop_decay=-0.000100
quickprop_mu=1.750000
rprop_increase_factor=1.200000
rprop_decrease_factor=0.500000
rprop_delta_min=0.000000
rprop_delta_max=50.000000
rprop_delta_zero=0.100000
cascade_output_stagnation_epochs=12
cascade_candidate_change_fraction=0.010000
cascade_candidate_stagnation_epochs=12
cascade_max_out_epochs=150
cascade_max_cand_epochs=150
cascade_num_candidate_groups=2
bit_fail_limit=3.49999999999999977796e-01
cascade_candidate_limit=1.00000000000000000000e+03
cascade_weight_multiplier=4.00000000000000022204e-01
cascade_activation_functions_count=10
cascade_activation_functions=3 5 7 8 10 11 14 15 16 17 
cascade_activation_steepnesses_count=4
cascade_activation_steepnesses=2.50000000000000000000e-01 5.00000000000000000000e-01 7.50000000000000000000e-01 1.00000000000000000000e+00 
layer_sizes=11 21 21 21 2 
scale_included=0
neurons (num_inputs, activation_function, activation_steepness)=(0, 0, 0.00000000000000000000e+00) (0, 0, 0.00000000000000000000e+00) (0, 0, 0.00000000000000000000e+00) (0, 0, 0.00000000000000000000e+00) (0, 0, 0.00000000000000000000e+00) (0, 0, 0.00000000000000000000e+00) (0, 0, 0.00000000000000000000e+00) (0, 0, 0.00000000000000000000e+00) (0, 0, 0.00000000000000000000e+00) (0, 0, 0.00000000000000000000e+00) (0, 0, 0.00000000000000000000e+00) (11, 4, 5.00000000000000000000e-01) (11, 4, 5.00000000000000000000e-01) (11, 4, 5.00000000000000000000e-01) (11, 4, 5.00000000000000000000e-01) (11, 4, 5.00000000000000000000e-01) (11, 4, 5.00000000000000000000e-01) (11, 4, 5.00000000000000000000e-01) (11, 4, 5.00000000000000000000e-01) (11, 4, 5.00000000000000000000e-01) (11, 4, 5.00000000000000000000e-01) (11, 4, 5.00000000000000000000e-01) (11, 4, 5.00000000000000000000e-01) (11, 4, 5.00000000000000000000e-01) (11, 4, 5.00000000000000000000e-01) (11, 4, 5.00000000000000000000e-01) (11, 4, 5.00000000000000000000e-01) (11, 4, 5.00000000000000000000e-01) (11, 4, 5.00000000000000000000e-01) (11, 4, 5.00000000000000000000e-01) (11, 4, 5.00000000000000000000e-01) (0, 0, 0.00000000000000000000e+00) (21, 4, 5.00000000000000000000e-01) (21, 4, 5.00000000000000000000e-01) (21, 4, 5.00000000000000000000e-01) (21, 4, 5.00000000000000000000e-01) (21, 4, 5.00000000000000000000e-01) (21, 4, 5.00000000000000000000e-01) (21, 4, 5.00000000000000000000e-01) (21, 4, 5.00000000000000000000e-01) (21, 4, 5.00000000000000000000e-01) (21, 4, 5.00000000000000000000e-01) (21, 4, 5.00000000000000000000e-01) (21, 4, 5.00000000000000000000e-01) (21, 4, 5.00000000000000000000e-01) (21, 4, 5.00000000000000000000e-01) (21, 4, 5.00000000000000000000e-01) (21, 4, 5.00000000000000000000e-01) (21, 4, 5.00000000000000000000e-01) (21, 4, 5.00000000000000000000e-01) (21, 4, 5.00000000000000000000e-01) (21, 4, 5.00000000000000000000e-01) (0, 0, 0.00000000000000000000e+00) (21, 4, 5.00000000000000000000e-01) (21, 4, 5.00000000000000000000e-01) (21, 4, 5.00000000000000000000e-01) (21, 4, 5.00000000000000000000e-01) (21, 4, 5.00000000000000000000e-01) (21, 4, 5.00000000000000000000e-01) (21, 4, 5.00000000000000000000e-01) (21, 4, 5.00000000000000000000e-01) (21, 4, 5.00000000000000000000e-01) (21, 4, 5.00000000000000000000e-01) (21, 4, 5.00000000000000000000e-01) (21, 4, 5.00000000000000000000e-01) (21, 4, 5.00000000000000000000e-01) (21, 4, 5.00000000000000000000e-01) (21, 4, 5.00000000000000000000e-01) (21, 4, 5.00000000000000000000e-01) (21, 4, 5.00000000000000000000e-01) (21, 4, 5.00000000000000000000e-01) (21, 4, 5.00000000000000000000e-01) (21, 4, 5.00000000000000000000e-01) (0, 0, 0.00000000000000000000e+00) (21, 4, 5.00000000000000000000e-01) (0, 0, 0.00000000000000000000e+00) 
connections (connected_to_neuron, weight)=(0, 1.02556198479614089081e+01) (1, 1.01646083779312768058e+01) (2, 1.00773431871871252952e+01) (3, 9.95223681401821380632e+00) (4, 1.00573913363804727794e+01) (5, 9.88326605969154492470e+00) (6, 4.51508241283223465956e+00) (7, 4.16008097045766511712e+00) (8, -3.70587366047256228097e-01) (9, -3.27271879879612537234e-01) (10, 1.03210577082171828245e+00) (0, 5.99217979109802012516e+00) (1, 5.82087820867221505949e+00) (2, 5.77687944618408888431e+00) (3, 5.82764514868301475303e+00) (4, 5.72415385492104267229e+00) (5, 5.74922007986878291774e+00) (6, 2.90272602083579966958e+00) (7, 2.41252509601113862558e+00) (8, 2.39792364205431951518e+00) (9, 2.23340276205768795137e+00) (10, 8.76067913341322501708e-01) (0, 6.09346389442022484673e+00) (1, 5.89242214744789638559e+00) (2, 5.86410858827193592901e+00) (3, 5.80175058188497860812e+00) (4, 5.81200133419401687718e+00) (5, 5.75943416563456889179e+00) (6, 2.96263355554027985050e+00) (7, 2.87064466567572607048e+00) (8, 2.88094524568132381859e+00) (9, 2.91953653136148361114e+00) (10, 7.76215659184184669783e-01) (0, 1.01312349178737104438e+01) (1, 1.01608743521067044213e+01) (2, 1.01235101385569006283e+01) (3, 1.00072062946852931020e+01) (4, 9.98771925287680595318e+00) (5, 9.88312875018834269270e+00) (6, 4.76344678449566405476e+00) (7, 4.79603146354367382287e+00) (8, 4.74294680034462867724e+00) (9, 4.61014787243191115351e+00) (10, 1.15233206773498575437e+00) (0, 4.74860454492921313374e+00) (1, 4.71780020890406692757e+00) (2, 4.54606972596923064600e+00) (3, 4.70983255473335571395e+00) (4, 4.50696261681859766668e+00) (5, 4.58808007903710990405e+00) (6, 4.57678570828928421577e+00) (7, 2.02629540942353036925e+00) (8, 1.90927816804615391177e+00) (9, 2.03068483804697486050e+00) (10, 8.87176949160864314337e-01) (0, 1.02346686676426550378e+01) (1, 1.00898268853493551234e+01) (2, 9.97964398616965198130e+00) (3, 9.95723766928397857612e+00) (4, 9.90713014854733131642e+00) (5, 9.98619021568415732304e+00) (6, 4.78816523351187761648e+00) (7, 4.77156730903521175691e+00) (8, 4.68859067409355390055e+00) (9, 4.73985671937343244764e+00) (10, 1.09278999104247609431e+00) (0, 4.72422971605267960626e+00) (1, 4.62899105625623441540e+00) (2, 4.55921430282500139697e+00) (3, 4.62461387895098408052e+00) (4, 4.65655651857086105849e+00) (5, 4.63207098420895579949e+00) (6, 2.30276816715026821925e+00) (7, 2.44898989140064449188e+00) (8, 2.37451307196652194875e+00) (9, 2.36018645081769662397e+00) (10, 8.55734807396572483285e-01) (0, -8.26844719920752091458e-02) (1, -1.02287860639827962728e-01) (2, -1.31024725042413137110e-01) (3, -1.15181278347244203664e-01) (4, -1.10281469682652885633e-01) (5, -6.11220262071672931770e-02) (6, -6.45282908636436863814e-02) (7, -1.34702231117151516315e-01) (8, -1.16688008925571518049e-01) (9, -6.58339344430375617012e-02) (10, 8.53556788802300570040e-01) (0, 1.01697018807443910760e+01) (1, 1.01734304618153377220e+01) (2, 1.00388858026509382171e+01) (3, 9.92466461037003000456e+00) (4, 9.95154829624376446873e+00) (5, 9.88605560745524236665e+00) (6, 9.88716284895938990473e+00) (7, 4.34295914742868038871e+00) (8, 1.31234112980906236778e+00) (9, 1.18226738079402937664e+00) (10, 1.04864617520100122938e+00) (0, 1.02823022314553860213e+01) (1, 1.01223862227244829626e+01) (2, 1.00055019058272609556e+01) (3, 1.00675405781836957431e+01) (4, 1.00547832568310475665e+01) (5, 9.90216913624792915982e+00) (6, 4.75837849198734197387e+00) (7, 4.74185918112931048540e+00) (8, 4.75369680012775042144e+00) (9, 4.68918088329280990934e+00) (10, 9.73846077324558856425e-01) (0, 5.74019903445318502300e-01) (1, 6.55989538386936299474e-01) (2, 5.28287696912986493025e-01) (3, 5.14629296524007906477e-01) (4, 3.91901668795250013311e-01) (5, 4.24859113340560090588e-01) (6, 1.73816575802998113387e-01) (7, -1.72284664335412923686e-01) (8, -4.64195915182940677113e-01) (9, -1.81529334914596685024e+00) (10, 6.81774778584794127756e-02) (0, -8.44030619725059938485e-02) (1, -1.00038772522204569282e-01) (2, -7.28837554946140803169e-02) (3, -3.92218997549190970253e-02) (4, -1.67689093401575423092e-01) (5, -2.51926926644652979248e-02) (6, -5.81998191197419176279e-02) (7, -1.12939884832322548491e-01) (8, -1.08518902173599829375e-01) (9, -6.03438956525839398370e-02) (10, 5.73782939849293086021e-02) (0, -8.41187215708726065966e-02) (1, -1.43139643684697892567e-01) (2, -2.89705984019793076623e-02) (3, -4.38883255800670765701e-02) (4, -4.94038562896932514912e-02) (5, -1.33193294038040227489e-01) (6, -1.24055730725006960191e-01) (7, -1.87427918825302047834e-01) (8, -1.08617057178435380549e-01) (9, -1.01188841871143520024e-01) (10, 5.46279341945710594786e-01) (0, 8.08975328671018067972e-01) (1, 6.13807931035947884624e-01) (2, 5.24697743644762071291e-01) (3, 5.80324152913711310831e-01) (4, 4.41919747362235826316e-01) (5, 4.96828788646099250847e-01) (6, 5.01277025838054557383e-01) (7, 3.99768707120397970289e-01) (8, 2.25323488410284905603e-01) (9, 3.07866474332372241918e-01) (10, -1.02312977753839448591e-02) (0, 1.02432639423939004786e+01) (1, 1.01382217752568148939e+01) (2, 1.00278110405069771360e+01) (3, 1.00736153900742806400e+01) (4, 9.91904078542900258242e+00) (5, 1.00366366644900182337e+01) (6, 4.68979330142072825538e+00) (7, 4.77050802312282140605e+00) (8, 4.50690330153598139873e+00) (9, 4.67140651036689558140e+00) (10, 9.94281934247619347822e-01) (0, 6.74175150123675792635e-01) (1, 7.85235654742406419260e-01) (2, 5.81251068308070717450e-01) (3, 6.36549317948720827509e-01) (4, 5.80192947071054621055e-01) (5, 5.15437240987184241980e-01) (6, 6.45091340540544178062e-01) (7, 5.72903118444155201594e-01) (8, 5.77237081809649055231e-01) (9, 5.78498149278636630832e-01) (10, 2.96663263536517229912e-01) (0, 4.78072771893443881908e+00) (1, 4.66542661686310378144e+00) (2, 4.55159734214874411862e+00) (3, 4.63032739285174699262e+00) (4, 4.56802835699465603625e+00) (5, 4.60586788804831304134e+00) (6, 2.41888394932130390558e+00) (7, 2.43111879216420145866e+00) (8, 2.37063338747993190836e+00) (9, 2.30134422316598774572e+00) (10, 8.48612557149714841209e-01) (0, 1.01469665186353594777e+01) (1, 1.01174710496955100325e+01) (2, 1.00566049349476127617e+01) (3, 9.95188362823185812545e+00) (4, 9.99125399239330036494e+00) (5, 9.90338545805694892010e+00) (6, 9.63056495926739764002e+00) (7, 1.54496046899116934448e+00) (8, -1.24161620108224575176e+01) (9, -1.24713881984029448802e+01) (10, 1.00393401860612208054e+00) (0, 4.73060694645293189353e+00) (1, 4.70477383754228029034e+00) (2, 4.65831016051291335600e+00) (3, 4.63702088558406355645e+00) (4, 4.60630747145542951415e+00) (5, 4.53670018542198150158e+00) (6, 2.36979407812243891840e+00) (7, 2.34638417773837426594e+00) (8, 2.31182915375777575662e+00) (9, 2.25978515266870072509e+00) (10, 9.30541823411506374697e-01) (0, -1.81165945827743146701e-01) (1, -7.86565719173287769550e-02) (2, -1.87159746528519688180e-01) (3, -2.58153980792446384462e-02) (4, -1.24830771493207662304e-01) (5, -1.90503545457884310155e-01) (6, -2.56874703194887657465e-02) (7, -1.91630753108084500580e-01) (8, -9.09556552301693521656e-02) (9, -1.50385022766820974915e-01) (10, 1.25603088154899777962e+00) (11, 1.44834767532659802747e+00) (12, 1.52282771131309835333e+00) (13, 1.61642951423373015807e+00) (14, 1.51942240207324097412e+00) (15, 1.57871641281742491891e+00) (16, 1.52056124652438584555e+00) (17, 1.62659976952102347525e+00) (18, -1.60052903119384950514e+01) (19, 1.59105746846160878150e+00) (20, 1.53512141786494815676e+00) (21, 2.21558171425754313333e+00) (22, -6.57773881477111732607e+00) (23, -1.27656157950548863056e+01) (24, 1.48263116927657057076e+00) (25, 1.57036529960454718235e+00) (26, 1.53000828896461449347e+00) (27, 1.54091440501852261491e+00) (28, 1.60802137027142055814e+00) (29, 1.55771809587379128637e+00) (30, -3.80961844148165056367e+01) (31, 1.45897697281223703847e+00) (11, -7.46461268704925844097e-03) (12, 2.39554119861535332048e-02) (13, -5.71216599424996945844e-02) (14, 8.23923471343483149187e-02) (15, 5.18851370621120147608e-02) (16, -7.92286469510428553731e-02) (17, 8.71467451301849438394e-02) (18, -2.41613155793706617380e-02) (19, -3.14009091118690464306e-02) (20, -3.89722687622310742794e-02) (21, -6.91579786459379508567e-02) (22, -8.15654396442867385408e-02) (23, -7.06929312666377596130e-01) (24, 3.83845121387023785475e-02) (25, 9.19004504050928254510e-03) (26, 2.82087265598292280533e-02) (27, 6.26002913145374956239e-02) (28, 1.56246663326324291415e-02) (29, -2.35379604647637657999e-03) (30, 4.63284691463592801508e-01) (31, -4.05991404058467370009e-02) (11, 3.38497879635273024590e+00) (12, 3.29876667020629232852e+00) (13, 3.31613894467769876329e+00) (14, 3.32486750943150743964e+00) (15, 3.39467371111011440021e+00) (16, 3.42657676615069872739e+00) (17, 3.30241229327026841744e+00) (18, -7.11623773517130420174e+00) (19, 3.29522869955851094304e+00) (20, 3.33091268253703320923e+00) (21, 4.35586223962909446783e+00) (22, -1.89259362964025923404e+00) (23, -4.03083578866336988966e+00) (24, 4.34190131603011231221e+00) (25, 3.33173736524325070363e+00) (26, 4.33818605368258936039e+00) (27, 3.32499187359336234593e+00) (28, 3.37173162306207219174e+00) (29, 3.40416364604985544062e+00) (30, -1.79357321923697554666e+01) (31, 3.22959696968178766596e+00) (11, 4.03916596794352877886e-01) (12, 4.52137058654228818355e-01) (13, 4.34876813070119105920e-01) (14, 2.93440698662895738114e-01) (15, 3.69536437406899731517e-01) (16, 3.77811161212757429251e-01) (17, 3.89399424897097612419e-01) (18, -7.30867264268735361554e+00) (19, 4.25390343674859394696e-01) (20, 4.29134344299635817066e-01) (21, 4.66417468143956237547e-01) (22, -2.82652474230414796352e+00) (23, -2.67569365333839392918e+00) (24, 3.47705878946518054384e-01) (25, 4.63562527056968209926e-01) (26, 3.57584926759451859901e-01) (27, 3.76873001785141936715e-01) (28, 3.57843647011237164790e-01) (29, 3.84176456248378372926e-01) (30, -7.28500809367067425626e+00) (31, 3.24994214086825883303e-01) (11, 4.14041510088882180884e-01) (12, 4.64623551782107513386e-01) (13, 5.12852171096530251582e-01) (14, 5.18144777901686115484e-01) (15, 3.92219946538470587427e-01) (16, 4.10209944186027908319e-01) (17, 4.62242300459907939914e-01) (18, -7.46396130342001473679e+00) (19, 3.48929508321672132709e-01) (20, 4.64205172711223745807e-01) (21, 5.18749002891786048508e-01) (22, -2.63030968485434701876e+00) (23, -4.95040291364613871394e+00) (24, 4.99482039021746482277e-01) (25, 3.98397455927208599125e-01) (26, 5.07121995287490245907e-01) (27, 3.97197891199074226698e-01) (28, 3.59811381331504365200e-01) (29, 4.43975166448855373957e-01) (30, -7.30278231706952585256e+00) (31, 4.78570005658106312207e-01) (11, 3.93985554654301683986e-01) (12, 3.11356122942653856800e-01) (13, 4.34152286524740638196e-01) (14, 3.71445305946757287074e-01) (15, 3.41835204371925160949e-01) (16, 3.24922512545347541568e-01) (17, 4.43186180173783750291e-01) (18, -7.35172150795913470489e+00) (19, 3.18971323672568141117e-01) (20, 4.82077621476415085766e-01) (21, 3.79371261862639697071e-01) (22, -4.39048060560901565186e-01) (23, -2.66673355413281853998e+00) (24, 3.34651065426464000563e-01) (25, 2.87647307461740220358e-01) (26, 3.63651626228260915763e-01) (27, 4.02086203092499261391e-01) (28, 3.12313043863818751156e-01) (29, 3.21817971979666717086e-01) (30, -7.46829981380498431065e+00) (31, 4.54792604276070100422e-01) (11, -5.73733507497086181459e-01) (12, -4.75328443623426910580e-01) (13, -4.61821427325876887604e-01) (14, -5.19419807345416817412e-01) (15, -5.14724603840776229191e-01) (16, -4.08707291809207284849e-01) (17, -5.03692181696322904827e-01) (18, -7.08496068286974800543e+00) (19, -4.12561587850552191625e-01) (20, -5.69205934794058343584e-01) (21, -2.19864149980537559870e+00) (22, -6.34757695441753311272e-01) (23, -7.99288824674862325992e+02) (24, -5.79697021598095441064e-01) (25, -5.26718270012712430628e-01) (26, -5.61636305034869831587e-01) (27, -4.57238168051310733819e-01) (28, -5.70483388451707318367e-01) (29, -5.42181824822904001593e-01) (30, -7.05739549315625147585e+00) (31, -5.44290752577350600561e-01) (11, -1.13913719323518763948e-01) (12, -2.21392759725835608364e-01) (13, -2.71606108348869446090e-01) (14, -3.09940418136657347414e-01) (15, -1.85933319961068238557e-01) (16, -1.53193908551286117614e-01) (17, -2.81301377567631183396e-01) (18, 5.36421983189986395502e+00) (19, -1.14660294798206593980e-01) (20, -3.10182779566621880107e-01) (21, -2.37127830276773837737e-01) (22, 5.92126015127844329555e+00) (23, 8.17880847499557184221e+00) (24, -3.58251767451602920467e-01) (25, -1.39198321913945960437e-01) (26, -4.45657415222129704713e-01) (27, -1.96362315848687268849e-01) (28, -1.71274006350736696103e-01) (29, -2.45000557566424498335e-01) (30, 1.10177707821379780029e+01) (31, -2.93038142408214741241e-01) (11, 1.24489967798693470513e+01) (12, 1.24773384150494841549e+01) (13, 1.25690883241673034831e+01) (14, 1.25050360214744387122e+01) (15, 1.24826167814666000311e+01) (16, 1.24946076648466402048e+01) (17, 1.25173101446405539150e+01) (18, -7.04435681203749664014e-01) (19, 1.24185306207272958545e+01) (20, 1.25557769037741415730e+01) (21, 1.24679679453352534324e+01) (22, 4.42243660878706723594e+00) (23, -2.00276461430662633401e-01) (24, 1.24916667222328854336e+01) (25, 1.24340188067847776665e+01) (26, 1.25229937922175800225e+01) (27, 1.25490165178546249081e+01) (28, 1.23965559751242260234e+01) (29, 1.25472961536234492996e+01) (30, -1.15448354166557933809e+01) (31, 1.25681171505646425146e+01) (11, -1.12587405507641666325e-01) (12, -9.27387636449470975641e-02) (13, -1.59962824552515842091e-01) (14, -1.41459207899079203452e-01) (15, 2.39128050437978660267e-03) (16, -4.59986178053525471277e-02) (17, -2.40669174706511883322e-03) (18, 7.97148083570109289298e+00) (19, -1.18482837214628461409e-01) (20, 1.48816884405098947414e-02) (21, -7.69709407164774317422e-01) (22, 6.11056415924373741433e+00) (23, 8.11190406307026101729e+00) (24, -2.46211619444489965280e-01) (25, -1.30113192395881066554e-01) (26, -2.15962868486804321355e-01) (27, -1.83181375645909347294e-02) (28, 7.28650146051543733117e-03) (29, -6.02700309940995826441e-02) (30, 8.06389822260412714172e+00) (31, -5.89010073712438117499e-02) (11, 1.16829481812432445231e+00) (12, 1.26510254864726889856e+00) (13, 1.18002960744343821098e+00) (14, 1.21652085059716030813e+00) (15, 1.23093970016104470311e+00) (16, 1.14325334791270183388e+00) (17, 1.22728405131627082980e+00) (18, -1.64376251455721344996e+01) (19, 1.30662083439144760533e+00) (20, 1.20960842449555627809e+00) (21, 1.37966359631482449188e+00) (22, -7.27620175519830780786e+00) (23, -1.56941025965395244413e+01) (24, 1.29880966393935115555e+00) (25, 1.17064549421907537763e+00) (26, 1.16818180568699614419e+00) (27, 1.26754799175140853151e+00) (28, 1.21554881123702385182e+00) (29, 1.21672236533598088215e+00) (30, -3.74065187375068788356e+01) (31, 1.32365613371920232133e+00) (11, 9.38141007241618529733e-01) (12, 1.00614882537440797350e+00) (13, 9.22176464208744439688e-01) (14, 9.85213889310150747747e-01) (15, 1.09032702252256874509e+00) (16, 1.08104440110861288460e+00) (17, 9.69686462254800263239e-01) (18, -1.39614290566293259843e+01) (19, 1.00989646141690925241e+00) (20, 1.08797152934799301605e+00) (21, 1.22964912483581501057e+00) (22, -4.53116725269551512412e+00) (23, -9.82252483487649641347e+00) (24, 9.45898990155677688030e-01) (25, 1.05084681761278342371e+00) (26, 9.57733040812025815391e-01) (27, 1.03670494571502791459e+00) (28, 9.15743946215554771584e-01) (29, 9.35237478779955333508e-01) (30, -2.63891029884232715119e+01) (31, 1.04523974684852394290e+00) (11, -3.38511455104598471544e-02) (12, -1.45576696993549806886e-02) (13, -2.21484107315877663813e-02) (14, 9.24840389259804288025e-03) (15, 1.59155135707906084108e-02) (16, -8.21463667765335581183e-02) (17, -1.02748732666706518724e-01) (18, -1.36197623545729640249e+00) (19, 4.99234401765518212568e-02) (20, -1.06638546743872075773e-01) (21, -8.59037295397402367314e-02) (22, -7.99341769622855302657e-01) (23, -2.46288856086294805081e+00) (24, 2.86332583305161508802e-02) (25, -5.10321413164853548983e-02) (26, -9.57978583021134727504e-02) (27, -9.80138481142742989949e-02) (28, 5.74952100745175220808e-02) (29, 1.03316420522129893966e-02) (30, -2.64851548258724722729e+00) (31, 6.77143188668099648558e-03) (11, 1.62605764175790756809e+00) (12, 1.49997009306476902779e+00) (13, 1.61201120853939228184e+00) (14, 1.57818874476883297397e+00) (15, 1.55741697353495722744e+00) (16, 1.55000043965253730960e+00) (17, 1.59521697926969174830e+00) (18, -1.58328236796968671030e+01) (19, 1.57005215035207235097e+00) (20, 1.54174101142320929547e+00) (21, 2.16440008327984534375e+00) (22, -6.57577861464814095172e+00) (23, -1.30355576693816708200e+01) (24, 1.44598413172332396215e+00) (25, 1.43920020852280239332e+00) (26, 1.50983372375466018411e+00) (27, 1.46827259079144534226e+00) (28, 1.47818724980973770222e+00) (29, 1.48905499847432509775e+00) (30, -3.78225443329473520748e+01) (31, 1.55659958662363417936e+00) (11, 1.57083140667907561472e+00) (12, 1.53677121732298327395e+00) (13, 1.51203484531798459933e+00) (14, 1.45369437246564436883e+00) (15, 1.56981721975640353683e+00) (16, 1.54791610728707551559e+00) (17, 1.44508468973640491484e+00) (18, -1.60102657107208408149e+01) (19, 1.57305318400228855147e+00) (20, 1.58575123170650900128e+00) (21, 2.26267976512455959437e+00) (22, -6.74907542438317697986e+00) (23, -1.40221402926439537850e+01) (24, 1.45726587331333168329e+00) (25, 1.56425316957645810234e+00) (26, 1.48735575437986433656e+00) (27, 1.61422671163307174247e+00) (28, 1.52509836822031963344e+00) (29, 1.61853440717546237515e+00) (30, -3.70066111811069333726e+01) (31, 1.58598753143714232827e+00) (11, 3.73825708898086417342e-01) (12, 4.42263605841761719972e-01) (13, 4.89015461759080394266e-01) (14, 3.79932378351717725540e-01) (15, 5.14406517967264553803e-01) (16, 3.24194510501070787267e-01) (17, 4.25026089092291892158e-01) (18, -7.47200592781495043226e+00) (19, 3.86630125562843596221e-01) (20, 3.48532133666437038411e-01) (21, 5.60327406445051745543e-01) (22, -2.66588340259814549071e+00) (23, -2.19970683390183863182e+00) (24, 3.62081923714701825467e-01) (25, 4.45981987085980691177e-01) (26, 3.70307256249216287802e-01) (27, 3.69123581289397206806e-01) (28, 3.36407666682842110273e-01) (29, 5.10681408383005908114e-01) (30, -7.52437732941119818975e+00) (31, 4.19797448968404984804e-01) (11, 6.22154391741568502106e-01) (12, 7.67468673198622775011e-01) (13, 7.43443971629054178862e-01) (14, 7.62789275076500516981e-01) (15, 6.25426179683349015015e-01) (16, 7.34052393947280612529e-01) (17, 6.64269353982088084365e-01) (18, -8.32285529100074583653e+00) (19, 6.33308285639308854442e-01) (20, 6.26638596197543251698e-01) (21, 7.69133134303071508420e-01) (22, -3.40068392070245861802e+00) (23, -5.34903970175058685044e+00) (24, 7.53273689703200299839e-01) (25, 7.44751321766248475242e-01) (26, 8.04093181207412577294e-01) (27, 6.31285844039456423005e-01) (28, 7.92505753807465573857e-01) (29, 6.58638063987650235198e-01) (30, -1.92304745431080554852e+01) (31, 7.87473303212977260301e-01) (11, 3.50610446639026795967e-01) (12, 4.86342457085292612096e-01) (13, 5.27319810180967740720e-01) (14, 4.73978891374154165383e-01) (15, 5.24975425449700106029e-01) (16, 3.73829846139222932155e-01) (17, 4.87773015706141954695e-01) (18, -7.32221013206663506878e+00) (19, 3.82472827562557293746e-01) (20, 3.84956919436532429835e-01) (21, 5.52813441594904420029e-01) (22, -1.19037789307043251341e+00) (23, -5.86789504967513941835e+00) (24, 4.72890264089029677130e-01) (25, 3.39817517637233501571e-01) (26, 4.31670993349958120877e-01) (27, 5.08931066674019105811e-01) (28, 3.42384735360770686707e-01) (29, 4.42436327931369999256e-01) (30, -7.33026813041809433003e+00) (31, 3.96164119631536526533e-01) (11, 1.18708705799667524339e+00) (12, 1.30252747940587654263e+00) (13, 1.31672980363914238211e+00) (14, 1.31406329984960756896e+00) (15, 1.27937388026796305951e+00) (16, 1.33024056776504973065e+00) (17, 1.28879397085646552057e+00) (18, -1.69975404349636960433e+01) (19, 1.16966992031919736483e+00) (20, 1.25849219117565325199e+00) (21, 1.36224953051704855689e+00) (22, -1.06956731578690966700e+01) (23, -1.53748380197672691594e+01) (24, 1.28697644111437758951e+00) (25, 1.31583189737078298798e+00) (26, 1.30677338250545349574e+00) (27, 1.23486535853203194257e+00) (28, 1.29629723164038113126e+00) (29, 1.14438081543598468848e+00) (30, -3.89264702869065928326e+01) (31, 1.28114187783111832530e+00) (11, 3.44944365218524340300e-01) (12, 4.66267266803860214175e-01) (13, 4.11975799371293471829e-01) (14, 3.52183931604116207126e-01) (15, 3.60592434777537274027e-01) (16, 3.88328911906513474239e-01) (17, 3.61990715713246369312e-01) (18, -1.55181439777980045847e+01) (19, 3.73545540632575778783e-01) (20, 4.25576884093145701993e-01) (21, 2.41399931249064891858e-01) (22, -2.26274669197188238456e+01) (23, 6.02433123483861052705e+01) (24, 5.47182975739062604781e-01) (25, 4.71356067444098525421e-01) (26, 4.05000250350426582724e-01) (27, 4.34258889329923902789e-01) (28, 4.49547513911453366919e-01) (29, 4.16080924986371003538e-01) (30, -3.79831687220632829849e+01) (31, 4.45771455859327037086e-01) (32, -1.77206162532790340025e-01) (33, 1.88584149243157528364e-01) (34, 1.35660201563406218606e-01) (35, -1.60873362201107400482e-01) (36, -1.00522443121546276035e-01) (37, -4.88079374948745398077e-02) (38, 1.50000000000000000000e+03) (39, 2.66256796681829943640e-01) (40, 1.73679053950310663401e-01) (41, 2.97556735775521385978e-01) (42, 1.03234745277966393218e+01) (43, -1.74659933407382200743e-01) (44, 1.88298347697569978809e-01) (45, -1.33387575036471334178e-01) (46, -2.20623247855827125941e-01) (47, -1.37714476682504305405e-01) (48, -4.19429410762206869578e-02) (49, -3.67727712855477409382e-02) (50, 2.27519171038741845337e+01) (51, -1.34194146663067798847e-02) (52, 2.20725426479178810091e-01) (32, -1.77510450191375429574e-01) (33, 9.25747839291257978989e-02) (34, 1.33721057233026546784e-01) (35, -5.40167108452882863134e-02) (36, -1.07597538657607266765e-01) (37, -2.39917513242611998847e-02) (38, 1.50000000000000000000e+03) (39, 3.01817416982390951397e-01) (40, 2.32644612978567533190e-01) (41, 3.29647712338481502226e-01) (42, 1.02682207119381239124e+01) (43, -1.01814400149097025738e-01) (44, 1.52170778193882905854e-02) (45, -1.70918694966531198309e-01) (46, -9.96672776328261372791e-02) (47, -4.55549462283432685800e-03) (48, -1.20153099566882276550e-01) (49, -2.07949961449299863814e-01) (50, 2.27288652088330103140e+01) (51, -5.21369503522262425776e-02) (52, 1.79704949805581049027e-01) (32, -1.86692355067376997146e-01) (33, 1.90195504684033678267e-01) (34, 2.56848255812768377915e-01) (35, -1.78543720886467693898e-01) (36, -7.09453123445867722685e-02) (37, -1.43884084163934361511e-01) (38, 1.50000000000000000000e+03) (39, 2.20724452613146909785e-01) (40, 1.46819114617202900464e-01) (41, 2.98394920776037630983e-01) (42, 1.03294263013207654467e+01) (43, -6.30652659683787336631e-02) (44, 1.69949644710170627571e-01) (45, -1.31329476840804287852e-01) (46, -2.41749761464150197954e-01) (47, -8.20977840661088476004e-02) (48, 2.13515609451251572870e-02) (49, -6.38025597752274742369e-02) (50, 2.28096973787982832960e+01) (51, -4.62812146384266667742e-02) (52, 2.65064095902318053177e-01) (32, 5.90934165324424331978e-01) (33, 8.59053280737963276259e-01) (34, 1.00829282958945443127e+00) (35, 6.83058056854434991756e-01) (36, 8.12835876885337871300e-01) (37, 6.98015139451314103880e-01) (38, 1.50000000000000000000e+03) (39, 1.36559929163310700417e+00) (40, 9.84224652298182234311e-01) (41, 1.46836112928115580800e+00) (42, 1.76731249442559579244e+00) (43, 5.85801614792215930017e-01) (44, 6.75037298386731654531e-01) (45, 6.08080938906350398909e-01) (46, 5.55648698065915214173e-01) (47, 8.19783559882541812414e-01) (48, 6.28099963894804269593e-01) (49, 7.12719348813575792612e-01) (50, 2.17277323572888967362e+01) (51, 7.81980720571639031924e-01) (52, 1.06467410258997241534e+00) (32, -8.41361156278114530327e-02) (33, 1.39131329296895256409e-01) (34, 2.19882880946938419342e-01) (35, -7.95296876875414560093e-02) (36, -2.00752176856617003953e-01) (37, -1.10210706975353733839e-01) (38, 1.50000000000000000000e+03) (39, 3.32672637115184133272e-01) (40, 1.68589743351228255053e-01) (41, 2.99459994484247593594e-01) (42, 1.03925778149932348526e+01) (43, -8.01256107711952464401e-02) (44, 1.24207727374260931685e-01) (45, -1.20529879102023784743e-01) (46, -1.72215416434452678329e-01) (47, -2.15607084409163790584e-01) (48, -8.46584709042816491165e-02) (49, -1.32516740768266388928e-01) (50, 2.26984975066762082463e+01) (51, -6.47019968853013854870e-02) (52, 2.53034418799685689727e-01) (32, 5.45794117181462534738e-01) (33, 8.51268950102775034949e-01) (34, 1.09284781175784084795e+00) (35, 5.21355623321861916253e-01) (36, 6.35514893929468582812e-01) (37, 5.50078994513921171183e-01) (38, 1.50000000000000000000e+03) (39, 1.34908346431042325264e+00) (40, 1.13366041854422006097e+00) (41, 1.28693821222358040224e+00) (42, 3.97728819127444710446e+00) (43, 4.62864680722695487347e-01) (44, 6.71129382969652299451e-01) (45, 4.87460841196338146020e-01) (46, 4.42718075642445307860e-01) (47, 6.84631780073660656250e-01) (48, 5.01818775586218790430e-01) (49, 4.64568630467008913953e-01) (50, 2.32212479392183901439e+01) (51, 6.42425096135127216002e-01) (52, 1.17258797597999819828e+00) (32, -4.61217020597593577169e-02) (33, 1.60722299732856371834e-01) (34, 2.09652836233688161238e-01) (35, -1.71509934015097342819e-01) (36, -1.21237210606615838926e-01) (37, -5.06416601686813863670e-02) (38, 1.50000000000000000000e+03) (39, 3.18034200430732605369e-01) (40, 2.27865124098705351674e-01) (41, 3.25622880764066369164e-01) (42, 1.03331701476250081839e+01) (43, -8.46450119951671214880e-02) (44, 2.88430687642880941024e-02) (45, -2.41864175417888377373e-02) (46, -1.87145527046961912543e-01) (47, -1.03695826881685868037e-01) (48, -1.11521192145696959597e-01) (49, -1.71684731581171451387e-01) (50, 2.25482783284133248003e+01) (51, -4.54040153461472209551e-02) (52, 1.54578567198591948495e-01) (32, 4.93430431354492771145e-01) (33, 8.61379874366974385147e-01) (34, 1.10269391744470324213e+00) (35, 6.82029785020481393865e-01) (36, 5.08462100355369761573e-01) (37, 6.60994028206750461329e-01) (38, 1.50000000000000000000e+03) (39, 1.24621684444228209010e+00) (40, 1.09685878179727036574e+00) (41, 1.35520152827771811488e+00) (42, 3.91118910481696913095e+00) (43, 4.39321233184067905242e-01) (44, 6.59367663712838170120e-01) (45, 5.28383111403775362902e-01) (46, 4.99209685401827807372e-01) (47, 7.13989725509777017898e-01) (48, 5.85734400791809495246e-01) (49, 5.67761204322698165292e-01) (50, 2.32123291458776641605e+01) (51, 5.45279442195944930027e-01) (52, 1.16855816465313955277e+00) (32, -6.31712853359135823039e-02) (33, 1.64499224343378575020e-01) (34, 2.52343321484956917278e-01) (35, -2.04276081054963559724e-01) (36, -2.00547365067020283425e-01) (37, -1.30053223830490199964e-01) (38, 1.50000000000000000000e+03) (39, 2.90494076534741796358e-01) (40, 2.53065144361020344377e-01) (41, 2.77436403676081022596e-01) (42, 8.97730540558052680922e+00) (43, -2.88306131317232717734e-03) (44, -1.79640760753856862375e-02) (45, -2.33849886948824581268e-01) (46, -6.15116779633310753472e-02) (47, -6.78983800785372543229e-02) (48, -1.33962423032771893450e-01) (49, -1.52889797184226794435e-01) (50, 2.27750776792152329620e+01) (51, -2.01217851328061358984e-01) (52, 2.64998503809512231388e-01) (32, 4.57985871174542424900e-01) (33, 8.24877903517587052207e-01) (34, 1.00412710769574786696e+00) (35, 6.45589200955110853464e-01) (36, 7.18876923705556558630e-01) (37, 6.70589639924092262291e-01) (38, 1.50000000000000000000e+03) (39, 1.38090734143866167294e+00) (40, 9.80087763872408701538e-01) (41, 1.35002987823795805866e+00) (42, -8.69126103647959724618e-01) (43, 4.37436608612908173210e-01) (44, 5.97510291917447755594e-01) (45, 5.10767151843124933563e-01) (46, 3.77087744995097728928e-01) (47, 6.85776927688818926931e-01) (48, 5.03427029569702311207e-01) (49, 7.31896936541704845602e-01) (50, 4.80027710743954969530e+01) (51, 7.90595475390256763326e-01) (52, 1.08875110941760988581e+00) (32, -9.31392479315736876444e-02) (33, 1.81697818611774974951e-01) (34, 2.46825613521044123777e-01) (35, -1.09614665583263840021e-01) (36, -9.26657593538713353354e-02) (37, -1.25320299698492926277e-01) (38, 1.50000000000000000000e+03) (39, 3.39963513156296248674e-01) (40, 7.32920615891688581600e-02) (41, 3.61162977957009134755e-01) (42, 1.02927346087547881837e+01) (43, -1.18755262287115609388e-01) (44, 6.69207911526082666054e-02) (45, -1.73396890154479732526e-01) (46, -1.12527172008938858294e-01) (47, -5.68704044238154612922e-02) (48, -2.26831022916858388028e-02) (49, -1.19708794473854435170e-01) (50, 2.27230700916299923620e+01) (51, -3.22273684666298868007e-02) (52, 1.99756285578681386239e-01) (32, -2.31895150378377545852e-01) (33, 2.26425588194311966372e-01) (34, 1.22249764057459159305e-01) (35, -1.48323626474376635276e-01) (36, -9.97475475903842993819e-03) (37, -1.04541939669480041242e-01) (38, 1.50000000000000000000e+03) (39, 3.17512091344056168740e-01) (40, 2.65990460703602993320e-01) (41, 3.36656285589596204755e-01) (42, 9.01582915612896940161e+00) (43, -4.92692723053146028334e-02) (44, 1.22601879992342885362e-01) (45, -2.09686678144087867981e-01) (46, -1.97158774937228747914e-01) (47, -4.23803858074201234007e-02) (48, -1.23991583974933386458e-01) (49, -3.68971864298953643180e-03) (50, 2.28536300306281887629e+01) (51, -2.00993118314169105787e-01) (52, 9.15235271644373321598e-02) (32, 3.85813037397286173746e-01) (33, 9.46271965597702102713e-01) (34, 1.06114710560131997319e+00) (35, 6.53798468031251966970e-01) (36, 6.04050448123728433991e-01) (37, 7.98158372134407878562e-01) (38, 1.50000000000000000000e+03) (39, 1.16320295268743278960e+00) (40, 1.15513613308273166425e+00) (41, 1.46247435274047177245e+00) (42, 1.65530985616793313575e+00) (43, 5.56549568668132321747e-01) (44, 7.39284778535344244688e-01) (45, 5.02506234392587902704e-01) (46, 5.22202735145085861213e-01) (47, 8.12730181513359517531e-01) (48, 5.03369862632974562899e-01) (49, 5.98950643498571744239e-01) (50, 2.34655108005660686388e+01) (51, 1.15288900046627018625e+00) (52, 1.12939206880778031383e+00) (32, -1.09647572847700533472e-01) (33, 1.67978287256025371477e-01) (34, 2.06768933668800308778e-01) (35, -9.26469077510418265176e-02) (36, -1.81017445019592854161e-01) (37, -3.34475444673334038059e-02) (38, 1.50000000000000000000e+03) (39, 3.36835593342087347146e-01) (40, 2.32483649715325063623e-01) (41, 2.73736579853190997724e-01) (42, 1.02506794455114782494e+01) (43, -1.35161203474157082249e-01) (44, -2.57588194078997682890e-02) (45, -1.00661648531515698912e-01) (46, -2.00250679153826216528e-01) (47, -3.09603616171811105162e-02) (48, -9.65967946469400984277e-02) (49, -1.78277897686242470243e-01) (50, 2.28566863490566873907e+01) (51, -7.53373000214029447941e-02) (52, 1.43867413857611620154e-01) (32, 6.19607070275836280260e-01) (33, 9.27384655825931769613e-01) (34, 1.13115745752520835410e+00) (35, 7.89279082944566168223e-01) (36, 6.48801757505500176215e-01) (37, 7.43630160263262451892e-01) (38, 1.50000000000000000000e+03) (39, 1.22330192657771741338e+00) (40, 1.15157141042961064237e+00) (41, 1.36213064279824136449e+00) (42, 2.98770714652769120434e+00) (43, 6.00840932590574694494e-01) (44, 7.79056742485545461463e-01) (45, 6.46977984737757472189e-01) (46, 6.29090823828938994211e-01) (47, 6.65823155851488102108e-01) (48, 5.55815924346504397491e-01) (49, 7.17846657788009823165e-01) (50, 1.91163763536218596073e+01) (51, 9.52143626579290414114e-01) (52, 1.14630029722745585552e+00) (32, -1.71071127235294939695e-01) (33, 2.46488732470461269219e-01) (34, 1.24599568577283700832e-01) (35, -7.45057428130277837885e-02) (36, 3.76474897162170458673e-03) (37, -9.08072000414087560083e-02) (38, 1.50000000000000000000e+03) (39, 4.63203500033917414669e-01) (40, 1.08364709535652012362e-01) (41, 2.30126840924257336507e-01) (42, 8.97155063485369552723e+00) (43, -1.15816338579921129792e-01) (44, 1.34065566587210416305e-01) (45, -1.98026256739192357825e-01) (46, -1.01886252440295754784e-01) (47, -9.48584722954879944190e-02) (48, -8.86330908390919741668e-02) (49, -3.48619830656069704111e-02) (50, 2.27511488883185677423e+01) (51, -1.84689431256252173386e-01) (52, 2.13894134653340867169e-01) (32, -1.61721347311274299408e-01) (33, 1.70309262849222486924e-01) (34, 1.23605000116649280106e-01) (35, -5.50216814871964665645e-02) (36, -3.21412484418054922308e-02) (37, -1.11183946275191680719e-01) (38, 1.50000000000000000000e+03) (39, 3.61172308263570052134e-01) (40, 1.43283270947282381780e-01) (41, 1.80520717508614564339e-01) (42, 1.02809327092200497589e+01) (43, -1.44747143826691321289e-01) (44, 3.22078808030970276111e-02) (45, -6.55215852176455476608e-02) (46, -1.97243357416696490914e-01) (47, -4.14115229238343970919e-02) (48, -2.78108897904192214900e-02) (49, -7.25855010843993869729e-02) (50, 2.26555450719603932441e+01) (51, -4.64055472525273862705e-02) (52, 2.93303678918599375347e-01) (32, -2.24604521595991507565e-01) (33, 1.39437734972550242407e-01) (34, 8.12520942432141818346e-02) (35, -1.24231194891278678982e-01) (36, -5.70938157531765896890e-02) (37, -1.67925137986106171040e-01) (38, 1.50000000000000000000e+03) (39, 3.78226122019755695014e-01) (40, 1.55069505197546753106e-01) (41, 3.58644581097641024225e-01) (42, 1.03042427346724920767e+01) (43, 1.10175881988810505513e-02) (44, -2.20758975547398032802e-02) (45, -1.64097166160808272117e-01) (46, -8.80965209433557105978e-02) (47, -1.53810894935418274176e-01) (48, -7.02444831242176551817e-03) (49, -1.00691697093798618323e-01) (50, 2.27217906091465557950e+01) (51, -4.25754990971788302434e-02) (52, 2.49449224732505053792e-01) (32, 5.35327984625511121841e-01) (33, 8.50381803944585623611e-01) (34, 1.11154150410773477908e+00) (35, 6.83158350627001476063e-01) (36, 6.43773449128426489274e-01) (37, 5.89860369145256191459e-01) (38, 1.50000000000000000000e+03) (39, 1.23153409726550466807e+00) (40, 1.18292456503443577098e+00) (41, 1.29867378227042351568e+00) (42, 3.91852024269760645936e+00) (43, 5.16456002212047238231e-01) (44, 7.55320013721496374970e-01) (45, 3.83078363896281137713e-01) (46, 4.38742296299460932119e-01) (47, 5.67967436704257200297e-01) (48, 5.38334703251807655811e-01) (49, 5.88920128503594542124e-01) (50, 2.32260412911309899187e+01) (51, 5.70579092889007655209e-01) (52, 1.13941049678101369302e+00) (32, -1.53096632016741784899e-01) (33, 1.07218996596029070290e-01) (34, 2.68551309712788510708e-01) (35, -2.03284560370234596016e-01) (36, -1.20712785427262589422e-01) (37, -9.56930333034371610745e-02) (38, 1.50000000000000000000e+03) (39, 2.17806293710453902079e-01) (40, 1.74881763039037269047e-01) (41, 3.11587510546093848784e-01) (42, 9.10185606015776826894e+00) (43, -8.54675713880179571680e-02) (44, 4.02245725000214340850e-02) (45, -7.42595004002916947439e-02) (46, -2.15616477200144429638e-01) (47, -1.25936443871168396447e-01) (48, -4.94324801282159456695e-02) (49, -1.24486444793604988934e-01) (50, 2.27706619992167844657e+01) (51, -1.82762212443734389788e-01) (52, 2.81316413226076145193e-01) (53, -1.05815905238890423101e-01) (54, -1.21973890504260704115e-01) (55, -8.80313074350211610675e-02) (56, -1.40790559977693602312e-01) (57, -1.04155500289498714750e-01) (58, -1.34071814318057008775e-01) (59, -1.42805007662832689208e-01) (60, -1.31632715755919255107e-01) (61, -1.78306622748672177758e-01) (62, -1.33408057118123424267e-01) (63, -1.39685117417082310665e-01) (64, -1.43564831747527155148e-01) (65, -1.41246509067458420050e-01) (66, -9.51041609159674339313e-02) (67, -1.18118759335587839021e-01) (68, -9.06963904002455745257e-02) (69, -1.15636803728618245413e-01) (70, -1.55673323157875131972e-01) (71, -1.03026728198061828801e-01) (72, -1.62218864984718519340e-01) (73, -8.40488444683825108861e-02) 
