FANN_FLO_2.1
num_layers=5
learning_rate=0.700000
connection_rate=1.000000
network_type=0
learning_momentum=0.000000
training_algorithm=2
train_error_function=1
train_stop_function=0
cascade_output_change_fraction=0.010000
quickprop_decay=-0.000100
quickprop_mu=1.750000
rprop_increase_factor=1.200000
rprop_decrease_factor=0.500000
rprop_delta_min=0.000000
rprop_delta_max=50.000000
rprop_delta_zero=0.100000
cascade_output_stagnation_epochs=12
cascade_candidate_change_fraction=0.010000
cascade_candidate_stagnation_epochs=12
cascade_max_out_epochs=150
cascade_max_cand_epochs=150
cascade_num_candidate_groups=2
bit_fail_limit=3.49999999999999977796e-01
cascade_candidate_limit=1.00000000000000000000e+03
cascade_weight_multiplier=4.00000000000000022204e-01
cascade_activation_functions_count=10
cascade_activation_functions=3 5 7 8 10 11 14 15 16 17 
cascade_activation_steepnesses_count=4
cascade_activation_steepnesses=2.50000000000000000000e-01 5.00000000000000000000e-01 7.50000000000000000000e-01 1.00000000000000000000e+00 
layer_sizes=9 21 21 21 2 
scale_included=0
neurons (num_inputs, activation_function, activation_steepness)=(0, 0, 0.00000000000000000000e+00) (0, 0, 0.00000000000000000000e+00) (0, 0, 0.00000000000000000000e+00) (0, 0, 0.00000000000000000000e+00) (0, 0, 0.00000000000000000000e+00) (0, 0, 0.00000000000000000000e+00) (0, 0, 0.00000000000000000000e+00) (0, 0, 0.00000000000000000000e+00) (0, 0, 0.00000000000000000000e+00) (9, 4, 5.00000000000000000000e-01) (9, 4, 5.00000000000000000000e-01) (9, 4, 5.00000000000000000000e-01) (9, 4, 5.00000000000000000000e-01) (9, 4, 5.00000000000000000000e-01) (9, 4, 5.00000000000000000000e-01) (9, 4, 5.00000000000000000000e-01) (9, 4, 5.00000000000000000000e-01) (9, 4, 5.00000000000000000000e-01) (9, 4, 5.00000000000000000000e-01) (9, 4, 5.00000000000000000000e-01) (9, 4, 5.00000000000000000000e-01) (9, 4, 5.00000000000000000000e-01) (9, 4, 5.00000000000000000000e-01) (9, 4, 5.00000000000000000000e-01) (9, 4, 5.00000000000000000000e-01) (9, 4, 5.00000000000000000000e-01) (9, 4, 5.00000000000000000000e-01) (9, 4, 5.00000000000000000000e-01) (9, 4, 5.00000000000000000000e-01) (0, 0, 0.00000000000000000000e+00) (21, 4, 5.00000000000000000000e-01) (21, 4, 5.00000000000000000000e-01) (21, 4, 5.00000000000000000000e-01) (21, 4, 5.00000000000000000000e-01) (21, 4, 5.00000000000000000000e-01) (21, 4, 5.00000000000000000000e-01) (21, 4, 5.00000000000000000000e-01) (21, 4, 5.00000000000000000000e-01) (21, 4, 5.00000000000000000000e-01) (21, 4, 5.00000000000000000000e-01) (21, 4, 5.00000000000000000000e-01) (21, 4, 5.00000000000000000000e-01) (21, 4, 5.00000000000000000000e-01) (21, 4, 5.00000000000000000000e-01) (21, 4, 5.00000000000000000000e-01) (21, 4, 5.00000000000000000000e-01) (21, 4, 5.00000000000000000000e-01) (21, 4, 5.00000000000000000000e-01) (21, 4, 5.00000000000000000000e-01) (21, 4, 5.00000000000000000000e-01) (0, 0, 0.00000000000000000000e+00) (21, 4, 5.00000000000000000000e-01) (21, 4, 5.00000000000000000000e-01) (21, 4, 5.00000000000000000000e-01) (21, 4, 5.00000000000000000000e-01) (21, 4, 5.00000000000000000000e-01) (21, 4, 5.00000000000000000000e-01) (21, 4, 5.00000000000000000000e-01) (21, 4, 5.00000000000000000000e-01) (21, 4, 5.00000000000000000000e-01) (21, 4, 5.00000000000000000000e-01) (21, 4, 5.00000000000000000000e-01) (21, 4, 5.00000000000000000000e-01) (21, 4, 5.00000000000000000000e-01) (21, 4, 5.00000000000000000000e-01) (21, 4, 5.00000000000000000000e-01) (21, 4, 5.00000000000000000000e-01) (21, 4, 5.00000000000000000000e-01) (21, 4, 5.00000000000000000000e-01) (21, 4, 5.00000000000000000000e-01) (21, 4, 5.00000000000000000000e-01) (0, 0, 0.00000000000000000000e+00) (21, 4, 5.00000000000000000000e-01) (0, 0, 0.00000000000000000000e+00) 
connections (connected_to_neuron, weight)=(0, 9.18128149379193847501e-01) (1, 9.55284311443865163938e-01) (2, 1.05940129056351439729e+00) (3, 8.63249339663888393126e-01) (4, 8.95957975077485313520e-01) (5, 9.68389529759794198682e-01) (6, 8.71217923090418011611e-01) (7, 9.73943828957310686611e-01) (8, 2.61454018167993140764e+00) (0, 1.15048865467027625065e-01) (1, 4.64433693954552362371e-02) (2, 7.96421363334030713022e-02) (3, 1.48661585136200063983e-01) (4, 2.70693721347374571806e-01) (5, 2.03022430989216989827e-01) (6, 2.40033985859027965137e-01) (7, 2.56757392781539084403e-01) (8, 8.19460197433336090533e-01) (0, 9.95360968080333030628e-01) (1, 1.02371910473173222123e+00) (2, 1.00072011042730824038e+00) (3, 1.00455029534415340997e+00) (4, 9.27320277758927336009e-01) (5, 8.99996577617201198862e-01) (6, 1.02909738129988892474e+00) (7, 1.03588058102299784835e+00) (8, 1.77676747656833033950e+00) (0, 9.57786434993491919698e-01) (1, 9.47955304110467689149e-01) (2, 8.55318163798374109241e-01) (3, 9.32096631171833944762e-01) (4, 9.45294174643769302691e-01) (5, 9.09943213730014410778e-01) (6, 8.87508957439417156543e-01) (7, 9.59236217460136875168e-01) (8, 2.70717731454740562214e+00) (0, 9.72626828907870666363e-01) (1, 1.18303375864245041704e+00) (2, 1.03691151457058317042e+00) (3, 9.89722353563355139450e-01) (4, 9.85525051672986762696e-01) (5, 1.03963810169606363232e+00) (6, 9.66805811275125548399e-01) (7, 1.06483084036983588483e+00) (8, 6.73664161335981592771e+00) (0, 1.06115942964656473357e+00) (1, 9.60902273644456794699e-01) (2, 1.06789634752002138285e+00) (3, 1.04936481548891147320e+00) (4, 1.04897013750495138318e+00) (5, 9.78400058410479389615e-01) (6, 9.49270011181973627501e-01) (7, 9.88729838280344219825e-01) (8, 1.94600697409803236049e+00) (0, 1.05596419873627911379e+00) (1, 1.08604328784517956130e+00) (2, 1.13783359306380549292e+00) (3, 9.74845427835664857241e-01) (4, 1.00152919366469528306e+00) (5, 1.03169372383642521385e+00) (6, 9.99017380806709431873e-01) (7, 9.42185607986343653941e-01) (8, 2.85141882468501206560e+00) (0, -8.32471388614758334157e-01) (1, -7.37224860770553713785e-01) (2, -7.80165925498137013960e-01) (3, -6.79878008393348221006e-01) (4, -6.51298226736414131999e-01) (5, -7.73345810727229521220e-01) (6, -7.81420634486526433093e-01) (7, -6.32268713259221737388e-01) (8, 6.07836247572448939991e+00) (0, 1.06695015993932984522e+00) (1, 9.82482496884665601478e-01) (2, 9.96328137425170790031e-01) (3, 1.12182481098387398788e+00) (4, 9.14064492377587578531e-01) (5, 1.02277602520173105383e+00) (6, 1.05935184657210412773e+00) (7, 1.07256351594350807233e+00) (8, 2.98526093255201363519e+00) (0, 1.57714553300491416854e-01) (1, 1.09167692729448095879e-01) (2, 9.85917446986099704764e-02) (3, 1.27586483389599436578e-01) (4, 2.98141111531929681178e-01) (5, 2.34245424337152563510e-01) (6, 1.46972937754544397126e-01) (7, 3.16618008313434395884e-01) (8, 9.51558474569128343035e-01) (0, 1.03545229534246052694e+00) (1, 1.03192521792512881262e+00) (2, 9.72294492694369405505e-01) (3, 9.55250725229713659736e-01) (4, 9.68766750085749528409e-01) (5, 1.07556189429736681618e+00) (6, 9.91323547067711197123e-01) (7, 9.49716054589419655940e-01) (8, 2.86158837327037307574e+00) (0, -6.75144272679034318507e-01) (1, -7.68696242862392020712e-01) (2, -5.78397513476353264394e-01) (3, -6.28087647791952141674e-01) (4, -6.42512864216903456516e-01) (5, -6.75616880801600871997e-01) (6, -5.54587862516363161447e-01) (7, -6.69755236742959669805e-01) (8, 5.40004011041595699538e+00) (0, -4.67389160163394282166e-02) (1, 4.32151519134051295690e-02) (2, 2.68960244850871173228e-02) (3, 2.43777554528808587664e-02) (4, -5.58818539361429431067e-02) (5, 8.74526845587632190027e-02) (6, 6.14693911106868814964e-02) (7, -2.00098157602444717829e-02) (8, 1.91214321108274365457e+00) (0, 9.86525376265793729758e-01) (1, 1.04777666294903726296e+00) (2, 1.07588611333750305832e+00) (3, 1.01720300474885627651e+00) (4, 9.17790476918423747676e-01) (5, 9.25900456895318635375e-01) (6, 1.02176769622765539758e+00) (7, 9.47005389496295313378e-01) (8, 2.41472089605570250370e+00) (0, 9.94554958264289856729e-01) (1, 1.09952730456306224660e+00) (2, 1.06700663361434289200e+00) (3, 9.52409080160305565599e-01) (4, 9.86252698584125897519e-01) (5, 9.43885118727704197639e-01) (6, 1.06191453062378782235e+00) (7, 1.07646083489679678102e+00) (8, 1.59981302355235244228e+00) (0, 1.41125639829255100643e+00) (1, 1.43368466547261763644e+00) (2, 1.40039733797460441700e+00) (3, 1.39309122408031149654e+00) (4, 1.42875976725387388022e+00) (5, 1.35147985916388235772e+00) (6, 1.30604025121951949906e+00) (7, 1.35658926858627615353e+00) (8, 1.52867741266629431074e+00) (0, 1.04562570354589312593e+00) (1, 8.21186615537105923934e-01) (2, 1.01143553270984609682e+00) (3, 1.00309244252382079310e+00) (4, 9.11953340164023185110e-01) (5, 8.72500914818750361590e-01) (6, 9.05010920290869380622e-01) (7, 9.93570566915801256513e-01) (8, 2.27560291948257997774e+00) (0, 9.31974181834580583939e-01) (1, 9.70528423153816155455e-01) (2, 9.60295318127153074705e-01) (3, 1.02775465588199343969e+00) (4, 9.90391707507485619111e-01) (5, 1.06821027937216306292e+00) (6, 9.36092195622673206579e-01) (7, 1.02242267383316209894e+00) (8, 1.98595327257661291576e+00) (0, 9.89884362631531677934e-01) (1, 1.04610633154638632547e+00) (2, 9.68530560418174535364e-01) (3, 1.08108201699053618761e+00) (4, 9.00005874280950912691e-01) (5, 1.05029495893754765135e+00) (6, 9.40986297051564335447e-01) (7, 1.04228556720523668488e+00) (8, 2.02919046327868368707e+00) (0, 9.63610815697032330185e-01) (1, 1.01574331466812539659e+00) (2, 1.03634482552698448110e+00) (3, 1.05224099942322535384e+00) (4, 9.38503751411942421790e-01) (5, 1.01642554860346234769e+00) (6, 9.50418759895926834602e-01) (7, 8.67894879257403384365e-01) (8, 4.17940402228934715367e+00) (9, 1.04498316589714090874e+00) (10, 1.45734819340640501650e+03) (11, 1.09426679796375991849e+00) (12, 1.06858432113874446401e+00) (13, 1.05230311636581363999e+00) (14, 9.39822692379224111647e-01) (15, 1.12613999910002582361e+00) (16, 2.13465053809369358362e+01) (17, 1.06655587682461505672e+00) (18, 1.45734746576476004520e+03) (19, 1.04139136306656565623e+00) (20, 3.21357967035150515756e+00) (21, 1.37601014137841434604e+03) (22, 1.13184404409443528650e+00) (23, 1.11756859790634677232e+00) (24, 1.00459162384166500459e+00) (25, 1.09119084229602480995e+00) (26, 1.13580123796389642621e+00) (27, 9.77403924631352505337e-01) (28, 9.39551855342673714055e-01) (29, 1.04111885903998468983e+00) (9, 8.97902313426550358066e-01) (10, 1.45734819340640501650e+03) (11, 7.82922272899000737389e-01) (12, 8.53315888884546014381e-01) (13, 8.46009522967855587261e-01) (14, 8.80308963680337508428e-01) (15, 8.09929126407662347553e-01) (16, 2.13083982834369187742e+01) (17, 8.96733935744008170410e-01) (18, 1.45734746576476004520e+03) (19, 8.51609523581799421343e-01) (20, 3.15924376712727728034e+00) (21, 1.37601014137841434604e+03) (22, 7.82850626811061545141e-01) (23, 8.76140524301921019834e-01) (24, 7.64728974582387532877e-01) (25, 7.71177007970286654270e-01) (26, 9.19437038932920058798e-01) (27, 9.17400558110707975423e-01) (28, 9.44457497841429738372e-01) (29, 8.26480384374265852898e-01) (9, 2.24269242229633869457e+00) (10, 1.45734848140642793624e+03) (11, 2.26612870680395017686e+00) (12, 2.22262980236340590423e+00) (13, 2.32801598552926236607e+00) (14, 2.21940033114467727415e+00) (15, 2.22098222240328002641e+00) (16, 2.27259914604688368911e+01) (17, 2.22119617162106974817e+00) (18, 1.45734775376478296494e+03) (19, 2.29830398039144112587e+00) (20, 4.51855168609498125676e+00) (21, 1.37601091657848883187e+03) (22, 2.38522164399545122393e+00) (23, 2.40580661725003164264e+00) (24, 2.22357117298824835672e+00) (25, 2.22828214220412146318e+00) (26, 2.38366596460627677700e+00) (27, 2.38177475986332032321e+00) (28, 2.29075335949610181530e+00) (29, 2.27187246011837107318e+00) (9, -7.62572639860471968021e-01) (10, 8.17484095004108457516e-01) (11, -8.54500935903877434363e-01) (12, -8.53118343749097562956e-01) (13, -8.08637977632330029465e-01) (14, -8.50298153259951505767e-01) (15, -9.00655533122727502970e-01) (16, 1.62733040033739264629e+01) (17, -8.72651683709424363933e-01) (18, 5.91470193692569257138e-01) (19, -8.30348147271174785722e-01) (20, 1.74587764694434199875e+00) (21, 3.62930412372028987633e+00) (22, -8.22547266647105979054e-01) (23, -7.36588591654334434722e-01) (24, -9.81190937505319826784e-01) (25, -8.16864366014442899733e-01) (26, -7.84329621125381071245e-01) (27, -7.81618129798222094351e-01) (28, -9.11265024417938551693e-01) (29, -9.00403365397829613670e-01) (9, 8.20900965923037628791e-01) (10, 1.45734819340640501650e+03) (11, 9.59990057720754075277e-01) (12, 8.11590658523703933902e-01) (13, 9.39197196361580277646e-01) (14, 7.72867275159583866362e-01) (15, 7.80322098395886731836e-01) (16, 2.12696669394674948705e+01) (17, 8.48419108845821279274e-01) (18, 1.45734746576476004520e+03) (19, 8.67007264258313425920e-01) (20, 3.14101547727754448758e+00) (21, 1.37601014137841434604e+03) (22, 9.38602596108573550282e-01) (23, 8.59356831003769250366e-01) (24, 7.54865374053501514418e-01) (25, 9.62660738678349003905e-01) (26, 9.26146858797843863798e-01) (27, 8.30302287474258715605e-01) (28, 8.43642637061742584059e-01) (29, 8.23507584336959252980e-01) (9, 7.29457561544451760227e+00) (10, 1.45734819340640501650e+03) (11, 7.31131330095336018360e+00) (12, 7.28241269638641952611e+00) (13, 7.30116232427713107711e+00) (14, 7.21858660751228775609e+00) (15, 7.22269114795882138935e+00) (16, 2.75561845957662079343e+01) (17, 7.23232325871661529959e+00) (18, 1.45734746576476004520e+03) (19, 7.29785580767367303423e+00) (20, 9.31489646124082071310e+00) (21, 1.37601054457845680190e+03) (22, 7.34342024094875256424e+00) (23, 7.34122947033474293477e+00) (24, 7.18407704357133880535e+00) (25, 7.15724571108449314494e+00) (26, 7.28035747362843643771e+00) (27, 7.32898962114373553334e+00) (28, 7.22359265400761341169e+00) (29, 7.18433370984902452960e+00) (9, -2.08396577865628845894e-01) (10, 1.14674383532746793080e+00) (11, -1.60726226186484105751e-01) (12, -3.15353975113568441024e-01) (13, -3.40372966145796262971e-01) (14, -1.64667715782723350637e-01) (15, -3.55521344567443664531e-01) (16, 1.64966280189170504400e+01) (17, -2.87464106979906264261e-01) (18, 9.87179415588725017727e-01) (19, -3.37046024535267052524e-01) (20, 3.06845281491290178266e+00) (21, 4.45772487401596428924e+00) (22, -2.09582061089354176886e-01) (23, -3.32590823452810824268e-01) (24, -2.23122688737418695126e+00) (25, -3.42310049175648778430e-01) (26, -2.44270489464294471293e-01) (27, -2.04234220521721687724e-01) (28, -2.52042924204544993572e-01) (29, -3.00912217655642300063e-01) (9, 1.10603593436680469608e+00) (10, 1.45734848140642793624e+03) (11, 9.83567675870885005374e-01) (12, 1.09202866866480130525e+00) (13, 1.02157242053729757636e+00) (14, 9.85288653969112804276e-01) (15, 1.01733180626486707787e+00) (16, 2.13609597890246512009e+01) (17, 1.05488344327809180356e+00) (18, 1.45734775376478296494e+03) (19, 9.45344298463503762697e-01) (20, 3.26136406536874723372e+00) (21, 1.37601091657848883187e+03) (22, 9.89394697090867247802e-01) (23, 1.08130818827161934159e+00) (24, 1.01414095583526631117e+00) (25, 9.92989726241486736491e-01) (26, 9.64327655182416365598e-01) (27, 1.10831824924151889356e+00) (28, 1.05090771436682528517e+00) (29, 9.89681204579203166460e-01) (9, -6.24396782624519142146e-01) (10, 1.23533043788871399471e+00) (11, -4.77507473923949876671e-01) (12, -5.97871232266141028333e-01) (13, -6.71855499129371813716e-01) (14, -6.60989152384680367369e-01) (15, -4.83313348035246559409e-01) (16, 1.93124631802713970785e+01) (17, -5.53339702732255189765e-01) (18, 1.00157499724587428780e+00) (19, -5.48568629405472685256e-01) (20, 3.36193099814747320409e+00) (21, 3.40230212218593131013e+00) (22, -5.93883178650182697034e-01) (23, -4.77354895996202510666e-01) (24, -5.80766077243647704798e-01) (25, -5.14364987345853896805e-01) (26, -6.20073608221311078914e-01) (27, -6.13850269565580974884e-01) (28, -6.09321022466132955486e-01) (29, -6.11621324631389406967e-01) (9, 7.34250060523580572180e+00) (10, 1.45734848140642793624e+03) (11, 7.27139626662184390682e+00) (12, 7.28617757566816148795e+00) (13, 7.22612996369206150860e+00) (14, 7.32646677788829236988e+00) (15, 7.31305641590681076991e+00) (16, 2.75091293557169827011e+01) (17, 7.23961847431548388698e+00) (18, 1.45734746576476004520e+03) (19, 7.24781598840538876516e+00) (20, 9.31269308582750099390e+00) (21, 1.37601091657848883187e+03) (22, 7.32632933215075876632e+00) (23, 7.17145700068241076508e+00) (24, 7.11302163124450537168e+00) (25, 7.31940055714677750842e+00) (26, 7.33086823085404937217e+00) (27, 7.29895819843776472169e+00) (28, 7.16898586690454386883e+00) (29, 7.26167937467097157622e+00) (9, 8.25248962109918937635e-01) (10, 1.45734819340640501650e+03) (11, 9.51975064033261153540e-01) (12, 8.23990639215221642999e-01) (13, 8.23181747596372859199e-01) (14, 9.13418649672922078331e-01) (15, 8.80196006990911827828e-01) (16, 2.12488679618793945281e+01) (17, 7.80770200354127363873e-01) (18, 1.45734746576476004520e+03) (19, 8.71619123226627712242e-01) (20, 3.14978220772416239726e+00) (21, 1.37601014137841434604e+03) (22, 8.02475962849009127886e-01) (23, 8.22528294088767042425e-01) (24, 8.07512309232968794603e-01) (25, 9.59741245658925823392e-01) (26, 8.63323756064471647953e-01) (27, 9.15268972022742821615e-01) (28, 9.66186114931836592667e-01) (29, 9.58814211595380938569e-01) (9, 3.53361339186363387910e+00) (10, 1.45734848140642793624e+03) (11, 3.53356483661542464247e+00) (12, 3.54946165955072023834e+00) (13, 3.39871310170998919276e+00) (14, 3.49706865767062602401e+00) (15, 3.52490355434447355520e+00) (16, 2.38869319253792689040e+01) (17, 3.51168465984458633145e+00) (18, 1.45734775376478296494e+03) (19, 3.39992450092563691655e+00) (20, 5.60167146070789723211e+00) (21, 1.37601091657848883187e+03) (22, 3.45751691486029066880e+00) (23, 3.47943202333858536690e+00) (24, 3.52208806335459367887e+00) (25, 3.57084429653936918925e+00) (26, 3.39776104913730847557e+00) (27, 3.37447782516881389370e+00) (28, 3.54792033143556828634e+00) (29, 3.50597714727449760730e+00) (9, 2.40161693369064810355e+00) (10, 1.45734848140642793624e+03) (11, 2.38017715195868317934e+00) (12, 2.25745899949568995524e+00) (13, 2.34743796001570670384e+00) (14, 2.37294416931106777469e+00) (15, 2.35427893026513235242e+00) (16, 2.26542234689220300936e+01) (17, 2.37231925595200854318e+00) (18, 1.45734746576476004520e+03) (19, 2.25522183824576671896e+00) (20, 4.56854707763143252919e+00) (21, 1.37601054457845680190e+03) (22, 2.23126004040662984096e+00) (23, 2.40148035839954232529e+00) (24, 2.19886001654233531610e+00) (25, 2.38226974031023974732e+00) (26, 2.36941866801595502068e+00) (27, 2.36498909838891346880e+00) (28, 2.23643947978544765931e+00) (29, 2.39891491472309636990e+00) (9, 2.41462694512535369640e+00) (10, 1.45734848140642793624e+03) (11, 2.27972517197949908763e+00) (12, 2.32034751105117198478e+00) (13, 2.26253604568136212905e+00) (14, 2.27657001108323919780e+00) (15, 2.34457950576437434975e+00) (16, 2.26215051815849328420e+01) (17, 2.25105428030338128309e+00) (18, 1.45734775376478296494e+03) (19, 2.24910162531278778886e+00) (20, 4.51062107955944568971e+00) (21, 1.37601091657848883187e+03) (22, 2.29173170306914331107e+00) (23, 2.25087374832327613561e+00) (24, 2.36897519380294063751e+00) (25, 2.23071130867651490348e+00) (26, 2.33136473028569168875e+00) (27, 2.35433340154004566713e+00) (28, 2.35890830433924758580e+00) (29, 2.37475284698324484722e+00) (9, 1.03862228113963683818e+00) (10, 1.45734848140642793624e+03) (11, 1.11041505862644340752e+00) (12, 1.02498571479667455186e+00) (13, 9.81327532634049926052e-01) (14, 1.07727987426442073371e+00) (15, 9.79469858078539146184e-01) (16, 2.14968341926410566600e+01) (17, 1.09851782824004562400e+00) (18, 1.45734746576476004520e+03) (19, 1.13000892959055798670e+00) (20, 3.15850503820120476206e+00) (21, 1.37601054457845680190e+03) (22, 1.03552751601524395397e+00) (23, 1.00642407739790007426e+00) (24, 1.06420256105499433374e+00) (25, 9.64807697028751687363e-01) (26, 1.05419677202320793974e+00) (27, 1.12266494617110801357e+00) (28, 1.02348317079348949399e+00) (29, 1.09146467578778305629e+00) (9, 1.03059529667334426328e+00) (10, 1.45734819340640501650e+03) (11, 9.69166016181000178342e-01) (12, 1.06635212323440131676e+00) (13, 1.03318997942663215461e+00) (14, 9.84472403072396140544e-01) (15, 9.82782328786000358711e-01) (16, 2.13354743640522706016e+01) (17, 1.12817918160180941101e+00) (18, 1.45734746576476004520e+03) (19, 1.07269672235866542209e+00) (20, 3.15713006630124004559e+00) (21, 1.37601054457845680190e+03) (22, 9.60339219245849751161e-01) (23, 1.00342324275626348928e+00) (24, 1.02813022937771658682e+00) (25, 1.00199546236382897035e+00) (26, 9.96578934147579920122e-01) (27, 1.01313576137321414983e+00) (28, 1.02457929537167857781e+00) (29, 9.92239846019731586146e-01) (9, 1.32826758516325083015e+00) (10, 1.45734819340640501650e+03) (11, 1.38048623212500154445e+00) (12, 1.39706044770216686324e+00) (13, 1.35408823361351005055e+00) (14, 1.40737471427184890338e+00) (15, 1.31380840180134494943e+00) (16, 2.17021898696801578410e+01) (17, 1.29310186712566288492e+00) (18, 1.45734746576476004520e+03) (19, 1.42730348135587181702e+00) (20, 3.59971826505983694133e+00) (21, 1.37601054457845680190e+03) (22, 1.35223062451620146263e+00) (23, 1.29379212316278291439e+00) (24, 1.31113380302141835365e+00) (25, 1.39311757617713283253e+00) (26, 1.32407280224016621339e+00) (27, 1.32171892612099983744e+00) (28, 1.39077004998806241787e+00) (29, 1.25833974471587128896e+00) (9, -1.47595247053648681579e-01) (10, 1.53224197943811191180e+00) (11, -2.13770134601655059647e-01) (12, -8.58849814140711237398e-02) (13, -2.16823985854194434264e-01) (14, -1.53775649284274951167e-01) (15, -2.31307027386267016755e-01) (16, 6.42075392858903537530e+00) (17, -7.10341310365285444339e-02) (18, 1.22727031696438371178e+00) (19, -2.52191881671430417899e-01) (20, 1.39319977881672518727e+00) (21, 3.29005397795223730739e+00) (22, -8.99016962964256649560e-02) (23, -1.82320164181956956284e-01) (24, -7.11091242146179358663e-01) (25, -2.11333959833652218485e-01) (26, -7.86692647098557601426e-02) (27, -2.07123338000438667050e-01) (28, -1.82503962679034792416e-01) (29, 7.51034746501401118124e-02) (9, 9.02315219819405545110e-01) (10, 1.45734819340640501650e+03) (11, 9.72805209718334396030e-01) (12, 9.61049080632228824861e-01) (13, 9.17019232118325144931e-01) (14, 9.30576520635505444190e-01) (15, 1.05024602062395433499e+00) (16, 2.13671198038425025345e+01) (17, 1.08616350826633079052e+00) (18, 1.45734746576476004520e+03) (19, 9.08066504801239959832e-01) (20, 3.20971234875933353337e+00) (21, 1.37601014137841434604e+03) (22, 1.07515218231568465690e+00) (23, 1.04849668069810264548e+00) (24, 9.84998512311636376104e-01) (25, 8.96815810970832183457e-01) (26, 9.56066135048723730883e-01) (27, 9.90393958763294945946e-01) (28, 9.66135911325347818135e-01) (29, 9.59840112496875952353e-01) (9, -1.96430758291872620269e-01) (10, 1.49944984140252524085e+00) (11, -2.19232168726712556284e-01) (12, -1.26356263591078793462e-01) (13, -1.71283946024470473679e-01) (14, -1.78171469584510577810e-01) (15, -1.52342872282392682859e-01) (16, 6.43468464367633874446e+00) (17, -1.07416773312127178386e-01) (18, 1.22181323220835746923e+00) (19, -1.12495645587909989804e-01) (20, 1.31189443914930481405e+00) (21, 3.37828109304395596268e+00) (22, -2.40244808107874519010e-01) (23, -1.51994851839101885460e-01) (24, -7.08322288442599035108e-01) (25, -7.92674277803750437776e-02) (26, -2.37813999154967425920e-01) (27, -6.29337501035531904359e-02) (28, -9.85797683040104677499e-02) (29, -5.73062113074582976657e-02) (30, -2.42635462630999332312e-01) (31, -1.80793061222016243628e-01) (32, -3.35445272361297619490e-01) (33, 2.00737081638199974520e+01) (34, -2.61421870638636977269e-01) (35, -3.27715701678510162864e-01) (36, -1.81111677053639184010e+01) (37, -1.60114152070329390787e-01) (38, -1.90409853156277755204e+01) (39, -3.48486461309767792116e-01) (40, -3.07061112991766971270e-01) (41, -1.59242692476385755418e-01) (42, -3.17946829663050767323e-01) (43, -1.83645576209492650266e-01) (44, -2.80466841084641926862e-01) (45, -2.46058498851260132323e-01) (46, -2.86216651098559093924e-01) (47, -1.17447003459451071450e+00) (48, -3.03415474654100569829e-01) (49, -4.85121564500392621344e-01) (50, -2.18567513886337411178e-01) (30, 3.29862561538063203681e-02) (31, -8.40163967822633687976e-03) (32, 5.71044524530047586941e-02) (33, -5.41363077710638318507e+00) (34, -1.89288574095128961372e-02) (35, 2.76088220658526617424e-02) (36, -2.00256545452103945637e-01) (37, -3.20908101198439515978e-02) (38, -9.63743892397144419348e-01) (39, -2.60529312259630309312e-02) (40, 7.80110045056024298260e-02) (41, -4.86789356517882271236e-02) (42, -8.76092633087029344641e-03) (43, -5.24767464193466315336e-02) (44, 4.26364710591009138385e-02) (45, 1.62606492470105286341e-02) (46, 8.40154004897820244624e-02) (47, -1.95442300035577366801e-02) (48, -8.17929071252707085016e-02) (49, 3.35511931793503331845e-02) (50, 8.09357575296559550448e-02) (30, 1.13780439597811122709e+00) (31, 9.49159379279626125303e-01) (32, 1.07613017382653874954e+00) (33, 1.82673975670159416396e+00) (34, 1.05583815777792167090e+00) (35, 9.42650797097271397895e-01) (36, 2.59543248305220046745e+01) (37, 1.10515996038022601411e+00) (38, 2.72562481413499888561e+01) (39, 9.40850198214379318529e-01) (40, 1.02473851673645977023e+00) (41, 9.51337619227603625838e-01) (42, 1.08454695385006871788e+00) (43, 1.04209402162707820416e+00) (44, 1.01900106500076281790e+00) (45, 9.98748076211490087850e-01) (46, 1.07140732782928083111e+00) (47, 2.51615833220397044911e+00) (48, 1.06471723068815959934e+00) (49, 1.46547367514745885408e+00) (50, 1.03810586286479811235e+00) (30, 1.10263059821907538627e+00) (31, 1.00977807375071026996e+00) (32, 1.07222141962815387117e+00) (33, 1.84852429701261167239e+00) (34, 1.11263102627356635921e+00) (35, 1.04282912032037655692e+00) (36, 2.59013556557387900625e+01) (37, 1.11743042233098632821e+00) (38, 2.72007888196058509322e+01) (39, 1.12123932366045919728e+00) (40, 1.11572440028140906776e+00) (41, 1.02733660128454751259e+00) (42, 1.05785907955244251610e+00) (43, 9.86288811516456864759e-01) (44, 9.43664341034828324517e-01) (45, 1.06099946160227798231e+00) (46, 1.05345883420034813760e+00) (47, 2.55196966050794893377e+00) (48, 9.94636002277978659158e-01) (49, 1.38832559263560484375e+00) (50, 9.94541985076405676836e-01) (30, 1.00646320645814379979e+00) (31, 9.99835153282814803610e-01) (32, 1.09712559165608136702e+00) (33, 1.90261878394349759347e+00) (34, 1.05907281444689349570e+00) (35, 1.02902250155080632332e+00) (36, 2.59675903892381469973e+01) (37, 9.84279627107387811158e-01) (38, 2.72045599660489081373e+01) (39, 1.11854144426485557773e+00) (40, 9.47399807298798912747e-01) (41, 1.09172644210559366407e+00) (42, 1.05125244595845424023e+00) (43, 1.03974876182510467260e+00) (44, 1.06484705035147286800e+00) (45, 9.54571148251183498878e-01) (46, 1.05394960972578077829e+00) (47, 2.48542282888826226994e+00) (48, 1.03274837025610799479e+00) (49, 1.36920549072000241608e+00) (50, 1.01898103700162967478e+00) (30, 1.72363961200970056131e-01) (31, 5.81658168420813928567e-03) (32, 1.17548838178397840881e-01) (33, 1.72835305687431950439e+00) (34, 1.27305628239048701511e-01) (35, 3.14972544442262414321e-02) (36, 9.33478374474463246102e-01) (37, 1.82431215469605140234e-01) (38, 1.53731061361905196883e+00) (39, 1.35292257706410494304e-03) (40, 4.93840039001100031268e-02) (41, 7.11019201925443614098e-03) (42, 1.58968099185694988762e-01) (43, -4.17255771605426831194e-03) (44, 1.26672591418710872579e-01) (45, 4.84801827088613759842e-02) (46, 7.62630236839731689980e-02) (47, 1.90518938588986053162e-01) (48, 1.30428551063714093239e-01) (49, 7.26719850078681450789e-02) (50, 1.79331195823168865200e-01) (30, -2.76839682662856023665e-01) (31, -1.92448176972421142183e-01) (32, -2.79914718277004259672e-01) (33, 2.00054301386820476694e+01) (34, -1.77387443768671299038e-01) (35, -3.65475526578882436990e-01) (36, -1.81431689855620810192e+01) (37, -2.84149491540112653087e-01) (38, -1.90595019111539620837e+01) (39, -1.68775788591321557197e-01) (40, -3.03085353074527164008e-01) (41, -2.54790664245592657355e-01) (42, -2.42526773148256602486e-01) (43, -3.17867288621550281302e-01) (44, -3.18784858741908372348e-01) (45, -2.02329338459242946691e-01) (46, -3.62845755828631377771e-01) (47, -1.34599183488775997475e+00) (48, -2.46843704337350200451e-01) (49, -6.15673101857085125488e-01) (50, -2.69569281862741039202e-01) (30, 1.07666152111668766977e+00) (31, 1.12257047970686740790e+00) (32, 1.04265319385593890900e+00) (33, 1.82869921742513463769e+00) (34, 9.79750839680309737467e-01) (35, 1.12761639787791589917e+00) (36, 2.59398206634271168980e+01) (37, 1.11887957108202451550e+00) (38, 2.71747118078034013422e+01) (39, 9.80207643724210542224e-01) (40, 1.01022432358137725927e+00) (41, 9.67346883346706598594e-01) (42, 1.06847736358968248283e+00) (43, 1.02690571138480346569e+00) (44, 9.58143874740379541954e-01) (45, 1.07118627524640475102e+00) (46, 9.46843736001629299182e-01) (47, 2.48483459557621788605e+00) (48, 9.70063284234022216168e-01) (49, 1.27977935784093532767e+00) (50, 1.10727790650382651449e+00) (30, 1.28861271355094952895e-01) (31, 1.17314260697949548917e-01) (32, 2.99926626868247383703e-03) (33, 1.64501123206055477333e+00) (34, 8.31693574941803070999e-02) (35, 8.33794858252165892176e-03) (36, 7.51582807432675248371e-01) (37, 4.51008831911700602824e-03) (38, 1.76065503938778133985e+00) (39, 1.17406976283072797540e-01) (40, 1.41661194388361000307e-01) (41, 6.78979549058226789643e-03) (42, 2.05497522044946964725e-02) (43, 1.41850662538482701763e-02) (44, 4.70302201234677336172e-02) (45, 8.65573205472858035747e-03) (46, 6.68509219359745138211e-02) (47, 1.42449854385324564676e-01) (48, 6.07559421640816443855e-02) (49, 2.23905831818754064155e-01) (50, 9.71132817117607016755e-02) (30, 1.04318819733230561120e+00) (31, 9.91110883136861242626e-01) (32, 1.13910436501126333120e+00) (33, 1.87848658455725336935e+00) (34, 1.12278674333586092615e+00) (35, 9.46437682985204475905e-01) (36, 2.59121344532241515424e+01) (37, 9.53339609542205757009e-01) (38, 2.71362808331570271037e+01) (39, 1.13225755198300226390e+00) (40, 1.09728625271883850623e+00) (41, 1.08557928302989736835e+00) (42, 9.50342187092954371330e-01) (43, 1.09063247240892335910e+00) (44, 9.83834009365361916721e-01) (45, 9.73765507496990090353e-01) (46, 1.12450966423380638304e+00) (47, 2.44608524364636448212e+00) (48, 1.01258061312989733338e+00) (49, 1.39052898462646656874e+00) (50, 9.60176032828797154650e-01) (30, -1.39467513902321704755e-01) (31, -8.12861609601642498557e-02) (32, -1.84476823440151149747e-01) (33, 7.44194865017252471517e+00) (34, -5.75450570839139627366e-02) (35, -1.02540529682668302147e-01) (36, 1.98018032530717413842e+00) (37, -1.81703746078523020735e-01) (38, 1.87904657420849874327e+00) (39, -1.23668526218684710072e-01) (40, -7.80259637936590449980e-02) (41, -1.28306542046042831862e-01) (42, -1.24074579235109769271e-01) (43, -1.55714724702919526944e-01) (44, -1.45030216737857736709e-01) (45, -1.17147311297341141789e-01) (46, -1.30735079316894736712e-01) (47, -6.10851315122044741246e-02) (48, -1.03478075834359278806e-01) (49, -7.03531102423867044093e-02) (50, -1.73425187458779134220e-01) (30, 1.01651408351219241233e+00) (31, 1.04676712102827251805e+00) (32, 9.51620161266797381927e-01) (33, 1.87750260545526836964e+00) (34, 1.08102221357097794119e+00) (35, 1.13661941045317349541e+00) (36, 2.60724011251725329430e+01) (37, 9.54092408673223535409e-01) (38, 2.72372121844302590432e+01) (39, 9.45422347182987454772e-01) (40, 1.04903777416092958141e+00) (41, 1.00723771723327004679e+00) (42, 9.95358403132840074967e-01) (43, 1.00609872861339177952e+00) (44, 9.84105536466036934229e-01) (45, 1.12723075274710837768e+00) (46, 1.00464442806519249629e+00) (47, 2.47947044391788873341e+00) (48, 9.81736618928275128759e-01) (49, 1.44891575641174608080e+00) (50, 9.93201582300546226278e-01) (30, 1.17104754563438107073e-01) (31, 5.49888766092958558573e-02) (32, 1.01161535278826361650e-01) (33, 1.24427851028698555069e+00) (34, -2.77455583713733661133e-02) (35, 4.83933237174717124918e-03) (36, 9.85239456113809364268e-01) (37, 1.03189245091165046619e-01) (38, 2.12226534918199094548e+00) (39, -2.93130398529175342781e-02) (40, -1.98070893311530597802e-02) (41, 8.52096940082311925246e-03) (42, -1.72032936335562228192e-02) (43, 1.01520173544684011446e-01) (44, 1.50032767924356741363e-01) (45, -2.00943012080701324806e-02) (46, 8.67664878988704951768e-02) (47, 3.12563638633289564428e-01) (48, 9.45062855281342123481e-02) (49, 2.15637027993272806237e-01) (50, 7.41421176834194811667e-02) (30, 1.13297178932971487342e+00) (31, 1.11926460982869513394e+00) (32, 1.11146863286511288216e+00) (33, 1.79423183539320030278e+00) (34, 1.10698494454811569021e+00) (35, 9.76602642995768488454e-01) (36, 2.60225155553820002297e+01) (37, 9.49211145541855816354e-01) (38, 2.71355821887581534213e+01) (39, 1.12856232984445870038e+00) (40, 1.09754368667357571354e+00) (41, 1.03869766938221785857e+00) (42, 1.06095164880443637578e+00) (43, 1.13525888747724357231e+00) (44, 1.04217989757911189130e+00) (45, 1.09701876774446183127e+00) (46, 1.07618594235446041196e+00) (47, 2.41925270049181939669e+00) (48, 1.02951081763954710446e+00) (49, 1.41162766433811937006e+00) (50, 9.88017623588566706871e-01) (30, 1.06925957360864853918e+00) (31, 1.09212518200452501915e+00) (32, 1.12076558370155088262e+00) (33, 1.86718505265304068885e+00) (34, 1.10325866736472599783e+00) (35, 1.03875985518843561017e+00) (36, 2.59940070631430515391e+01) (37, 1.02899273648087818955e+00) (38, 2.71457672415506543473e+01) (39, 9.51732571623831735685e-01) (40, 1.02245410787603852043e+00) (41, 9.42420250705060968954e-01) (42, 1.12369078953464729409e+00) (43, 1.06051060068982305751e+00) (44, 1.10989478029887278510e+00) (45, 9.60783014502737731100e-01) (46, 9.95871345253465656278e-01) (47, 2.56225128493362142024e+00) (48, 9.73753605566838320584e-01) (49, 1.31845023233854918843e+00) (50, 1.07762877943918411461e+00) (30, 1.07294085990163923228e+00) (31, 1.10636449082727095217e+00) (32, 1.07337724888873964346e+00) (33, 1.79227526707821960272e+00) (34, 1.06387284054404407385e+00) (35, 1.01005277321551867331e+00) (36, 2.59603412436409399788e+01) (37, 9.53873240249076714825e-01) (38, 2.71317442269042921055e+01) (39, 1.06120405939139561546e+00) (40, 1.08362239881029709387e+00) (41, 1.10125781121477173130e+00) (42, 1.04245922506525912077e+00) (43, 9.94632105996797410974e-01) (44, 1.06500606055180990772e+00) (45, 9.41708662226055204236e-01) (46, 1.10148436130175508829e+00) (47, 2.39714415323852891859e+00) (48, 9.64864306175790109599e-01) (49, 1.44723349314646010377e+00) (50, 1.03743207192678155160e+00) (30, -1.08447248256938896804e-01) (31, 2.16654992947620111954e-02) (32, -1.17789135501399716555e-01) (33, 2.06242937019204175542e+00) (34, 4.29380987500686400749e-02) (35, -6.14282052953544210894e-02) (36, 3.27595530441063820248e+00) (37, -1.22818713617630845270e-01) (38, 1.49898329516778838766e+00) (39, -1.98594287352364153032e-02) (40, 1.06117312365847076688e-02) (41, -4.91612903798044204029e-02) (42, -8.59925978741712393472e-02) (43, 4.67116557353818712128e-02) (44, -1.24798867863426532487e-01) (45, -1.54502396129306013989e-02) (46, -8.01019114420376404651e-02) (47, -4.54124631229786135389e-02) (48, -6.31761040268815406845e-03) (49, 1.06584112430339578159e-01) (50, 3.36759411942163522369e-02) (30, 1.03165117296787478551e+00) (31, 1.02076193002987225533e+00) (32, 9.65019019253703591588e-01) (33, 1.77381174302402833121e+00) (34, 1.02296017730162236425e+00) (35, 1.12699296550803662598e+00) (36, 2.59197691723334600056e+01) (37, 1.04831406842998919871e+00) (38, 2.72842902480051101577e+01) (39, 1.07004643642213448373e+00) (40, 1.07657779521598206962e+00) (41, 1.05956553680906506720e+00) (42, 1.08896827596366363444e+00) (43, 1.07522588436629251696e+00) (44, 1.03921460762180628556e+00) (45, 9.64251042730990270968e-01) (46, 1.05395906618907986285e+00) (47, 2.49576264318745577597e+00) (48, 1.08494665459451455902e+00) (49, 1.30433758478482531018e+00) (50, 1.00042957243949226509e+00) (30, 9.72496336277385742264e-01) (31, 1.02152898677839742980e+00) (32, 9.83852200237557150686e-01) (33, 1.80107337098887620996e+00) (34, 9.42789719228168010545e-01) (35, 1.04046126393157023493e+00) (36, 2.59583277687218370033e+01) (37, 1.07318308386839045276e+00) (38, 2.72018651515428153687e+01) (39, 9.81070289188044175610e-01) (40, 9.65323838808610945605e-01) (41, 1.10001548397179638172e+00) (42, 1.00657889339430894893e+00) (43, 9.82960239346340913791e-01) (44, 9.83465243245751130630e-01) (45, 9.94061440874666080170e-01) (46, 1.01557460384167552725e+00) (47, 2.53492467076866834219e+00) (48, 9.55740088205507820618e-01) (49, 1.27963759759758244350e+00) (50, 1.02933627381662473610e+00) (30, 7.43598210170821755094e-02) (31, 9.41330942954556049163e-02) (32, -3.63836487948036649276e-02) (33, 3.75382014781338835263e+00) (34, 1.18873722072142778972e-01) (35, 7.80650024399891367954e-02) (36, 6.36154742068428036283e-01) (37, 6.43099586389935390374e-02) (38, 1.35144345765254914049e+00) (39, -5.14203808841264473073e-02) (40, 9.72958798689473047805e-02) (41, -8.61623434016786302059e-03) (42, -7.07859560085549906205e-03) (43, -5.78060947018392487506e-02) (44, -5.33693015943681545871e-03) (45, 9.38722532832932665681e-02) (46, 1.33668661818887347936e-02) (47, 1.65439160908095739266e-01) (48, -2.68741958481744508402e-02) (49, 9.13273080846951496037e-02) (50, -4.58508404644056913324e-02) (51, 1.50000000000000000000e+03) (52, 2.15740183936298984824e-01) (53, -1.26079650173217233666e-01) (54, -1.46092935713457078295e-01) (55, -1.47132392491319624606e-01) (56, -1.08934831567998630097e-01) (57, 1.50000000000000000000e+03) (58, -1.30902719240114179255e-01) (59, -1.10316692250742226511e-01) (60, -1.03508598250466363200e-01) (61, -2.94575874981865659663e-01) (62, -8.73571887861165630174e-02) (63, -1.39765503196777995942e-01) (64, -1.58628942693637947636e-01) (65, -1.06558495791569951550e-01) (66, -1.37977299780242118610e-01) (67, -7.87108272295664740392e-02) (68, -1.80323566230174342495e-01) (69, -1.66687131855626863297e-01) (70, -1.59368592828957378327e-01) (71, -2.11027124585824524261e-02) 
